4.026389503084525784e-02,-4.024049400742540916e-02
1.471129125804857473e-03,-1.471427697634188026e-03
-5.267140241718061382e-03,5.245812984413839378e-03
1.522636140175285917e-02,-1.524545442779313455e-02
9.706830493352577166e-03,-9.722918467844298557e-03
4.941610422131005424e-03,-4.895374312047644748e-03
1.669767424860341305e-03,-1.684781145456515968e-03
-3.466067916748053531e-03,3.452005557575329835e-03
-6.450632571858119432e-03,6.450448656307726167e-03
-3.061631850536524879e-03,3.042050870893017126e-03
5.108754409122094782e-03,-5.114729541470570788e-03
1.419951269785294824e-02,-1.417184389929790518e-02
1.322287590378361070e-02,-1.320841260640086105e-02
1.580806058590171481e-02,-1.583760231464632559e-02
1.076643269907628583e-02,-1.076878212958830468e-02
8.362917057560252665e-03,-8.378183286656591677e-03
3.670038303787594939e-03,-3.658745540958483443e-03
1.113631777454264678e-02,-1.113442028845815571e-02
-3.845271177605308593e-06,-1.498118050652742035e-05
9.812669829400903038e-06,-9.892587493268740898e-06
-8.084445534228802905e-04,8.019066147049886415e-04
-5.169655344541020277e-03,5.153083036509843902e-03
-6.023505662838346021e-03,6.032047383221298027e-03
-1.057146672579860336e-02,1.060268571117891322e-02
-2.261607163625074975e-03,2.307975161062302688e-03
2.015059665384634144e-03,-1.955286510938876801e-03
-4.170961489127722639e-03,4.172404770925590076e-03
-3.669831938025073549e-03,3.640104772731096901e-03
4.859518780892561722e-03,-4.856604835624468534e-03
6.228906297477737955e-03,-6.248031790009779193e-03
-6.928447591926622205e-03,6.886392139938680296e-03
-4.003641847543071806e-03,3.981822435553883203e-03
-2.328237867834825198e-03,2.334429324121947875e-03
-4.593960730182923904e-03,4.613556141168175667e-03
7.089292890627229594e-03,-7.057645464482872714e-03
3.633357719443294689e-03,-3.610881583968634113e-03
-4.430351570024407683e-04,3.969813390221105958e-04
-5.068639968754456646e-04,5.129518195683138108e-04
-1.087399164040026966e-03,1.069647853705360486e-03
-4.069776668967219069e-03,4.008682901596476687e-03
1.130386447721860171e-02,-1.134586369950001637e-02
1.522375696040590559e-02,-1.522707536334585825e-02
5.805335263630278207e-03,-5.816487239006439165e-03
5.741409589600650690e-03,-5.740033972363772254e-03
-6.787082935187200520e-04,6.721558701634684253e-04
3.882463994178033794e-03,-3.865941620728943848e-03
1.065815045219749291e-02,-1.063347713013492422e-02
5.723200383964340693e-03,-5.719301519656183955e-03
1.117367177765509747e-03,-1.138173553574344269e-03
-1.288573281945378174e-03,1.288733507953451242e-03
5.622120195585638379e-03,-5.618791704990554366e-03
1.648792662597985473e-02,-1.649847442450927057e-02
1.040505897599353254e-02,-1.039146085914004550e-02
9.276709475729833301e-03,-9.283380686066143930e-03
-5.684641816999916114e-04,5.458738773333680601e-04
3.028049065888557302e-03,-3.039626754770837110e-03
-1.189862764828926672e-04,1.166835275503481402e-04
-9.639136737050743109e-04,9.679866399541817677e-04
-4.164202738719258168e-03,4.170366010885259711e-03
-5.313634485660715875e-03,5.303820932636421105e-03
2.479756548012239381e-03,-2.449364892346518174e-03
-8.790288812039585148e-03,8.780538060850854795e-03
-1.453578322352446894e-03,1.466346613228682993e-03
-2.130302799935909763e-03,2.147600160534444622e-03
9.321056127968258638e-05,-9.119366130028442230e-05
-2.334229270389668340e-04,2.457681968643024161e-04
2.400859800037394385e-03,-2.422237188599730279e-03
4.790832014125468992e-04,-4.646481486478197076e-04
2.320285404429873327e-03,-2.300478539634811560e-03
-3.014111871600679525e-03,3.018544424345378022e-03
9.756435201356182746e-04,-9.758937278966488011e-04
-3.044131956616218364e-03,3.033914446267903676e-03
-6.453129752389154608e-03,6.436533129879078337e-03
-9.128119415542292059e-03,9.132166508226371299e-03
-1.572084133764289210e-03,1.569791965518224901e-03
6.885918224442306307e-03,-6.899856284392935635e-03
-1.979518615760286499e-03,1.945790990255939507e-03
-9.849758521252827918e-04,9.650190380680502425e-04
5.964431449577688518e-03,-5.967990165894146784e-03
1.166024383597887275e-03,-1.178990336530389479e-03
-2.564142255799812479e-03,2.569199406627820700e-03
-1.055758254974179964e-03,1.045396281421756644e-03
6.167001938681871027e-04,-6.034856679861108283e-04
-5.012824531400214556e-03,5.015305143248530509e-03
-2.810917878762627352e-03,2.813283449667872138e-03
-4.618820006386288189e-05,7.098334031245111947e-05
-9.880898741301087293e-04,1.021177721819791938e-03
1.768530436368111278e-03,-1.740161569506511879e-03
1.563346660766684387e-03,-1.562542208633490356e-03
1.693320148018953109e-03,-1.713295987940700047e-03
-9.007524024696552572e-04,8.682065690516461379e-04
-2.651313787608544875e-04,2.427665407037426571e-04
1.334061118069845668e-03,-1.349375610579866061e-03
-1.109221538990834682e-03,1.081568727477258103e-03
-2.171695754924776300e-03,2.147311206451579194e-03
-2.347732715326190153e-03,2.347798754734178265e-03
-4.357000651625901437e-03,4.357801944024913485e-03
-4.222898204824729329e-03,4.234142905862826357e-03
-2.763069919320646460e-03,2.758259965052075463e-03
-1.320934969806880155e-03,1.285897028733110764e-03
-1.984762941607254565e-03,1.977789379488949142e-03
-1.379400915366337226e-03,1.370570999064962044e-03
-1.281809181871747553e-03,1.270184181869415735e-03
-1.196906798579200132e-03,1.180872533469824867e-03
2.051918531835816056e-05,-2.759157338686867299e-05
-1.873111702340306847e-04,1.812383341591481485e-04
1.109379999210211932e-03,-1.103634142619489824e-03
1.439768986702318282e-03,-1.436956765719954324e-03
1.100734351772447890e-03,-1.090266450770391608e-03
1.032174421229316904e-03,-1.024239082853314409e-03
1.368316849148548849e-03,-1.355853295059008439e-03
3.672409612929132864e-04,-3.554771522265554018e-04
2.823306768092491230e-04,-2.708329538468882860e-04
3.497018326725368832e-04,-3.424295540219654001e-04
9.849665859388992764e-04,-9.973650182053686933e-04
3.312529636082535531e-04,-3.324044537169312786e-04
4.976983803105025769e-04,-5.112001143191577217e-04
1.161617252977195387e-03,-1.169658961020935643e-03
1.016999729835682108e-03,-1.014994734289434777e-03
1.681566484190206382e-03,-1.675524671599381427e-03
9.523293971584930731e-04,-9.446614874205122234e-04
9.390085271383958329e-04,-9.323684836796968141e-04
2.483742555270050580e-03,-2.482081801186603303e-03
1.754505468238365569e-03,-1.751218617007607682e-03
8.403407029729201847e-04,-8.341559483215374524e-04
1.488468496341061303e-03,-1.487642241137766613e-03
1.574391185027097882e-03,-1.557110234488248051e-03
1.164935898630038626e-03,-1.149092574797742601e-03
-4.145539449601423967e-03,4.145904898221265331e-03
-3.649154777069477280e-03,3.650110624852061399e-03
-4.305292458227033200e-03,4.304802286648000409e-03
-7.641188084028036466e-05,7.828245605586884410e-05
-4.561641425889581374e-03,4.551841523321898883e-03
-5.489477460354793767e-03,5.484782639588432242e-03
-4.329798015554302791e-03,4.325846216568363448e-03
-1.687216550457825868e-03,1.680506631725689785e-03
2.982638745766971961e-04,-3.098486586186009468e-04
2.464557915226026075e-03,-2.466967817902162262e-03
1.780220462994599800e-03,-1.782253870214797059e-03
-2.373456368908952348e-03,2.351478506877086039e-03
2.376931456698142399e-04,-2.494385278124104156e-04
2.579297240759977311e-04,-2.607894998374621505e-04
4.543107207379917822e-04,-4.675748914978444652e-04
1.781426453013012536e-03,-1.762153663716041572e-03
-2.077923174033402022e-03,2.109140967223681155e-03
-4.608883685749022054e-03,4.644281015969782891e-03
-5.201628260928041134e-03,5.195870706578233425e-03
-9.757370110389931156e-03,9.774683582463538495e-03
-2.591560711847246644e-03,2.606163625497623197e-03
-7.651739056114462319e-03,7.653120662236242641e-03
-1.210522374963207692e-02,1.212493435907303733e-02
-2.239459120769640450e-03,2.237137729296657506e-03
-4.942738055533608434e-03,4.941619405486438223e-03
-2.325794671401253122e-03,2.322437715500084640e-03
-6.236015212750908171e-03,6.213407213994437406e-03
4.559889631968214543e-04,-4.571213882851592907e-04
7.477740406621097985e-03,-7.453607797762113428e-03
6.408798607589245681e-03,-6.404781028822955323e-03
6.108749835192319073e-03,-6.098959280084173887e-03
2.732942961880748586e-03,-2.713885827639717259e-03
-6.131653990257382968e-03,6.118114086841684902e-03
-6.950301332221286868e-05,6.002469484073356157e-05
-1.767470711534806487e-03,1.779616093576788386e-03
7.167691466784718857e-03,-7.142973417374955288e-03
1.073664739408376105e-03,-1.043526675407048130e-03
-5.607447072763108685e-03,5.584118919378869804e-03
8.305165117455924964e-03,-8.326475149601124739e-03
6.310728308640073392e-03,-6.328818330553587918e-03
-7.343695483343688768e-03,7.347499601031744730e-03
-6.385351750246860345e-03,6.394598569498042076e-03
2.074347925888743536e-03,-2.080836818850178172e-03
9.227831179820960347e-04,-9.239719659287223092e-04
2.792177545625120026e-03,-2.778716887753958104e-03
-3.032040034735861058e-03,3.035628806258505123e-03
-5.325468372168054923e-03,5.312218615944459127e-03
-2.506917952586669267e-03,2.473485212889361615e-03
7.146412062324492128e-04,-7.207423334692607958e-04
-5.971571597332194295e-03,5.961624063234023489e-03
-1.511353049485697876e-03,1.488675794304539094e-03
9.100785808563853800e-04,-9.156881976697667366e-04
-1.886003063047195097e-03,1.898658964470967183e-03
-1.444751468597915440e-03,1.433380675478341387e-03
-1.345859067876954305e-03,1.336217437433349095e-03
-1.830606343637703175e-03,1.830063818717230992e-03
-2.137681572996585726e-03,2.150516498522452372e-03
3.947374062680713939e-03,-3.956159922009977806e-03
-2.809341061681871880e-04,2.373071273091542090e-04
-3.942874122332859737e-04,3.617227337752616659e-04
7.732072673591507649e-03,-7.734893845955869221e-03
-3.191106800268902338e-03,3.189353166383291933e-03
-6.013732071853262855e-03,6.001875118713820290e-03
-1.282298531081702561e-03,1.272467798977437161e-03
-2.280022764609753046e-04,2.447217203688383013e-04
2.055133177674314717e-03,-2.043112547802246413e-03
2.237873393425551718e-03,-2.241479363971339827e-03
-5.169076438888263285e-03,5.153291893903676722e-03
-5.175476221117335414e-03,5.152267516786865342e-03
-3.873162741835585888e-03,3.880844132670386443e-03
-5.415375657602220991e-03,5.390266686580338917e-03
4.597846075680933793e-03,-4.577498437109159789e-03
5.911256484314733432e-03,-5.912253779174923493e-03
7.191559511450224115e-04,-7.462809486905581761e-04
2.220872839496068184e-03,-2.243903033339138958e-03
-4.153483322723785544e-03,4.153019316194845462e-03
-7.322708909467704960e-03,7.361327865412659911e-03
-1.097088476939293137e-05,1.681355206999019669e-05
-3.229031609310525040e-03,3.241926690290096794e-03
1.665953819668635448e-03,-1.668263050470997948e-03
2.809499670119467319e-03,-2.815542106346658781e-03
1.498754698323013189e-02,-1.499346623778723998e-02
2.343071690181369477e-03,-2.343427530868678367e-03
-9.194984863239361733e-03,9.203900066543868608e-03
1.726220759297235211e-03,-1.729675351100803341e-03
2.690717142909405252e-03,-2.728910800733589867e-03
5.618649871993319431e-03,-5.620804917151960359e-03
-1.692805999694706152e-05,1.500371162208297539e-05
7.330378426799982750e-03,-7.362637062726995474e-03
7.169464038428377192e-03,-7.157645383957853165e-03
7.686426051242736292e-03,-7.710897650777128777e-03
3.713479060513328722e-03,-3.701695020387942275e-03
1.339922092048628170e-03,-1.340719375552401876e-03
2.351237176776814052e-03,-2.338032410539953899e-03
1.462587139013810014e-03,-1.473063144801221294e-03
1.347069875550481292e-02,-1.347700504380277241e-02
6.788594239343470615e-03,-6.799616964673977498e-03
7.913223984053681034e-03,-7.921342468184764882e-03
6.179535149623655368e-03,-6.198802964728197286e-03
8.974046703028305122e-03,-8.959634026452353503e-03
3.333837727440562559e-02,-3.332377780490321934e-02
-2.689408552496686325e-02,2.689126508696891918e-02
-2.557661944225386383e-02,2.556380586693145912e-02
1.449904410050426896e-02,-1.447952950769875596e-02
8.351852081053075597e-03,-8.363725983474153483e-03
1.313241917233575785e-02,-1.310830516990211560e-02
-7.520028863305936936e-03,7.539346060572015007e-03
1.573843902799875773e-03,-1.570460958591717374e-03
-1.370623131529420018e-03,1.393280878612357127e-03
-6.819619821227178996e-03,6.792915053730721325e-03
-5.402329072588552559e-04,5.379273268505304750e-04
1.145574829527235168e-02,-1.146826637306483723e-02
-1.876834409628688576e-03,1.902549825735373647e-03
-7.548297377493905745e-03,7.537976457643320860e-03
-2.223764863906210493e-03,2.199945625664099982e-03
1.831444215009300509e-03,-1.790716778208614876e-03
4.758904529412209816e-03,-4.728653734464243960e-03
9.779460432227389532e-03,-9.837612350996676955e-03
2.488697139354349892e-03,-2.473069335411671576e-03
-2.843994347319246522e-05,7.495432175966307666e-05
-5.021392038586343712e-03,5.031254653236152431e-03
-1.502513177427035156e-02,1.502908672152437376e-02
2.384111995456656948e-04,-2.528800158105791690e-04
-4.357291699686548399e-03,4.355492044261491044e-03
4.323157472024211599e-03,-4.305121154953146095e-03
2.739544063025222635e-03,-2.725355253589572570e-03
1.172510960039116652e-03,-1.143911576453535573e-03
7.810300721233250478e-04,-7.842884664148979789e-04
8.921143184659066985e-04,-8.747613337502469985e-04
1.219837810039728875e-02,-1.221558161707464625e-02
-2.600958540686230166e-03,2.583141859117166900e-03
5.954650295530872911e-03,-5.951153788582252274e-03
5.064789653377967278e-03,-5.044505712711842144e-03
4.813250918696498036e-04,-4.795289024145939043e-04
5.426398795601349370e-03,-5.408693286581564043e-03
5.733513260865100332e-03,-5.732128444103268446e-03
-5.551265701923839904e-03,5.562342740131379429e-03
2.560572568382869525e-03,-2.604005506157226323e-03
1.348898475787097938e-03,-1.365457562904686664e-03
-3.917447302012453357e-03,3.899884399239627632e-03
9.733105055369173581e-04,-9.831368716347065918e-04
3.277922137246225189e-03,-3.268047132596885347e-03
4.995975831843593729e-03,-4.991719369883947620e-03
1.898549590360473207e-03,-1.897152979738910483e-03
3.546509287308372612e-03,-3.527253704856845359e-03
-4.462549272527913113e-03,4.463968292574970777e-03
1.540736907978764890e-03,-1.519938093082643348e-03
1.910715789224092008e-03,-1.895555965411634472e-03
6.211336665335426103e-03,-6.233356406693937868e-03
-8.515758525050704311e-03,8.480870493937267551e-03
-6.192462322159459839e-03,6.194519160105397583e-03
-5.482452521744985395e-03,5.495182152387281110e-03
-1.688907679252271525e-03,1.723570542115834218e-03
5.362009040571516678e-03,-5.376094980792723611e-03
2.326274312371622629e-03,-2.327640313115253955e-03
-8.411705017097061837e-03,8.417332302776869141e-03
3.819320247361552428e-03,-3.807646037923625645e-03
7.899537863769645965e-03,-7.897789998881316748e-03
-1.747579408512632331e-03,1.744249412057058196e-03
-4.357471950605582012e-03,4.376426185384496917e-03
-1.907410059483268146e-03,1.900940679999036081e-03
-7.466813009060211878e-03,7.451381116458281363e-03
2.328462856361393149e-03,-2.342049714725644247e-03
1.821197789003853340e-04,-2.144966006039368382e-04
4.089328690214422656e-03,-4.097098679689655659e-03
3.271592158186100970e-04,-3.135851970005569945e-04
-7.403599406787732262e-03,7.406220007058919239e-03
-3.449823094437659814e-03,3.469207139290546738e-03
6.724319251296480456e-03,-6.705919737442503185e-03
-2.881703311981003313e-03,2.853377939267521222e-03
-2.927749642250742929e-03,2.878601687953564938e-03
3.836568676460328561e-03,-3.855628585368141379e-03
1.072817024507014255e-03,-1.068095061033818866e-03
1.309604645978463449e-03,-1.340601500677385044e-03
9.848378514871393864e-04,-9.801371325143678169e-04
-2.581748297498463393e-03,2.598215281286538406e-03
-1.396486333413937860e-02,1.395131358019975967e-02
-4.814522362940632308e-03,4.809037871373433859e-03
1.252913703185298431e-03,-1.249236546284844106e-03
2.201584577545209059e-03,-2.215890072669981451e-03
-1.613773105258151140e-03,1.631809563934984988e-03
-3.671599795488214579e-03,3.635942818852914808e-03
-4.333010619937444248e-03,4.323525365911888400e-03
-5.911412559015458493e-03,5.911732267331714329e-03
-4.683458291077927105e-03,4.682838920996371980e-03
3.127686143639824080e-06,1.938311228442158869e-05
1.101959917156717121e-03,-1.078135438606451970e-03
3.455043441853925933e-03,-3.450687033615359653e-03
4.665411756514959568e-03,-4.674734188304766579e-03
3.848945693623809748e-03,-3.851344212059417370e-03
2.654187335042898065e-03,-2.664364915493466855e-03
2.667471520747702156e-03,-2.678415834968664918e-03
3.203224746745698438e-03,-3.223244822287645202e-03
1.337172219932447007e-03,-1.397376270108240982e-03
-1.079313882369571870e-03,1.028790618433001770e-03
2.058314664500823614e-03,-2.059877984067834487e-03
-1.751884902310166031e-03,1.756838636208556039e-03
-1.916072500439860342e-03,1.923284165716945956e-03
9.712671757498453915e-04,-9.710072672871470278e-04
8.317638788623826209e-04,-8.284428958456718220e-04
7.825767651071785643e-04,-7.839588407606989809e-04
-1.294535339687133977e-04,1.313597466347460818e-04
5.997835530629705295e-04,-5.995034375440177641e-04
6.575148012497442811e-04,-6.604872224554697016e-04
1.205211467955172745e-03,-1.201276452751438807e-03
2.103581870942014456e-03,-2.095509736815174152e-03
1.266400991944928531e-03,-1.261377938302981694e-03
1.935107868507576767e-03,-1.918480942108791772e-03
1.261505595215558920e-03,-1.239444870988874910e-03
1.239559733794772878e-03,-1.222446446084303473e-03
1.041108543825703227e-03,-1.024429739675343856e-03
1.041108543825703227e-03,-1.024429739675343856e-03
2.342761546802085443e-03,-2.328448122842261426e-03
2.397900686107559774e-03,-2.393502628369125439e-03
9.502514041452965942e-04,-9.553205151032916802e-04
3.341198264616501647e-04,-3.296558132957823242e-04
-2.004029361823539391e-04,2.121264558138211034e-04
-1.336013068863395933e-04,1.330457599340618155e-04
3.765417894711710930e-04,-3.638998023654245830e-04
1.511084399454721032e-03,-1.492416370924840637e-03
3.765417894711710930e-04,-3.638998023654245830e-04
3.118714567940299794e-04,-2.935665554965637201e-04
5.311535498314620728e-04,-5.218951971053936148e-04
1.190892623874292107e-03,-1.176956250087645523e-03
1.137337628742399491e-03,-1.124836792916093830e-03
1.190892623874292107e-03,-1.176956250087645523e-03
6.777889662387689236e-04,-6.644199025839929744e-04
-4.428538677994783780e-04,4.600318341218618732e-04
-2.070511814257288471e-03,2.079592699061850840e-03
-6.071155050881091178e-04,6.161108149317398282e-04
-1.972683205488698355e-03,1.964268366659706420e-03
-1.250009740990812822e-03,1.243575214813680751e-03
-2.445428434664520013e-03,2.426018469015037583e-03
-5.527544077341831411e-03,5.515750023765208371e-03
-8.173274570945399803e-03,8.164422003110580542e-03
-3.159031959581753111e-03,3.142975101064122891e-03
-2.706613422690328126e-03,2.686744330655241059e-03
-3.621739668716245260e-03,3.592582278212836430e-03
-6.999809017033272428e-03,6.964583738016480279e-03
-6.770465432400043539e-03,6.738799742216071767e-03
-2.084695030838640360e-03,2.081739967712382868e-03
-2.264610455580099487e-03,2.248630609415965334e-03
-4.400889806640360252e-03,4.401361547954379255e-03
-2.947395288439757545e-03,2.933875743760610676e-03
-5.114098215590640040e-03,5.125974239009456479e-03
-5.418094020183525025e-03,5.447190575177161299e-03
-3.706100561567770950e-03,3.700056565839846510e-03
-6.831649166072265716e-03,6.793592724601960238e-03
-1.032414575644384665e-02,1.032929160625089063e-02
-6.065235085850636913e-03,6.068378634985651006e-03
-6.525389617641858160e-03,6.533112473952160278e-03
-6.641997276034039555e-03,6.639866798773422750e-03
-5.357526382710190403e-03,5.379654172727264122e-03
-8.639331673873838768e-03,8.624585738386585099e-03
-7.110573823501552780e-03,7.065227778481691749e-03
-5.889779870498334374e-03,5.903691455623518922e-03
-3.349542960957737920e-03,3.362852135756057379e-03
-5.110145371641295828e-03,5.137698954628421022e-03
2.910327538670930657e-03,-2.929967761729750791e-03
-4.803350180208193487e-03,4.782352594251282861e-03
-5.948426996464883411e-03,5.924259834908714509e-03
-1.750053796122392081e-03,1.743615414074932771e-03
-1.586218377863592599e-04,1.422556998382728762e-04
-4.174078615798316322e-03,4.173875066325981667e-03
-4.174560587673139221e-03,4.195749489097296003e-03
-2.421354312127725703e-03,2.409700264970644681e-03
6.691193611079206127e-03,-6.681263112839952445e-03
5.699269563970564556e-03,-5.670656773304591849e-03
6.827163958390859537e-03,-6.815871370438575036e-03
-6.956634840257023417e-03,6.951396061257927861e-03
-3.134936186459838514e-03,3.113254722754776795e-03
-5.733264062641006166e-03,5.758878617651732972e-03
-8.216362039857146721e-03,8.206834252960343301e-03
-8.387571055139852669e-03,8.398681818480836780e-03
-6.817142607200211979e-03,6.842307555505316823e-03
-4.521917607139478747e-03,4.517642281240417772e-03
5.953826600128794486e-03,-5.923585617519588724e-03
4.380136292434748044e-03,-4.349208650041330032e-03
8.921086712116770012e-03,-8.933573120588395380e-03
-9.647891684979499356e-04,9.754183493496305273e-04
-3.677599716093554716e-04,3.587798942364974473e-04
-9.716538586048970895e-04,9.545517869402949263e-04
-3.759914948652309536e-03,3.774542724862051547e-03
5.486297195101890595e-03,-5.466102955604325297e-03
7.068616682378696739e-03,-7.049949513558075205e-03
-4.898604410675758136e-03,4.921447360509543026e-03
2.485436693412182430e-03,-2.479657081176834914e-03
1.037439376495852749e-03,-1.091197755684257054e-03
2.511169113708181487e-03,-2.523765608434890440e-03
-3.609996306231836195e-03,3.636917990439257446e-03
-1.100387323914124235e-02,1.102257518692840825e-02
4.909017982172535904e-03,-4.901836900153595453e-03
4.267224391245038988e-03,-4.228071074599208667e-03
1.172327336509724864e-02,-1.171457325784273050e-02
9.159388093827434615e-03,-9.158340563722746491e-03
3.548612378235403643e-04,-3.495609964056653951e-04
-9.889538525318255710e-03,9.871927219863014039e-03
-1.177682864254304788e-02,1.175632317903113622e-02
1.459021278902334837e-03,-1.469324869808311248e-03
1.425173184403500997e-03,-1.438368323786416497e-03
-1.304865886214144274e-03,1.294169428070750683e-03
-4.885102047891592275e-03,4.893637336678148195e-03
-2.605225465881754257e-03,2.587142647155553279e-03
-1.279201168536673108e-03,1.269997644511518297e-03
-9.827386424315362815e-04,9.978245296232922910e-04
7.712883304031988192e-03,-7.687460832476629424e-03
-4.312922095876529222e-03,4.328305623755872647e-03
-2.622658066458320985e-03,2.614789757989143416e-03
-4.436850692496259983e-03,4.434266048919085872e-03
5.875166154914524159e-03,-5.877322885950771875e-03
-8.221040188287832146e-03,8.211050707049329794e-03
-7.577337107950206027e-03,7.525920304237414087e-03
3.179266097823159332e-03,-3.199111993376155781e-03
-5.618658588799578003e-03,5.605043983382519170e-03
-8.683279208819677172e-03,8.688941349349251289e-03
-2.477968279026570610e-03,2.470963841268604758e-03
5.421670020035139308e-03,-5.444450414609609649e-03
-1.489709546596077079e-02,1.490197332440315429e-02
-8.267951725131913012e-04,8.030143430401391613e-04
-4.937762022066923863e-03,4.957606207435965792e-03
-4.316402394734298632e-03,4.301852315721523684e-03
-6.992268339078884162e-03,7.001502447981204809e-03
-2.010595637531544921e-03,2.001347666759175758e-03
-1.024633336271235114e-04,9.797792012902042165e-05
-1.142622731229064317e-03,1.152767761914540862e-03
-1.136695864101551880e-03,1.146355891821544508e-03
-7.765387866164560546e-03,7.765698668194573155e-03
1.390431798525874375e-02,-1.390796770069173925e-02
1.932741012769861183e-02,-1.933256065299189183e-02
1.456522496070517154e-02,-1.456644216784053723e-02
-3.064750298211854065e-04,3.544241978101330130e-04
6.176683653090711155e-04,-6.110372898983228336e-04
2.047564483059011523e-02,-2.048436344250103083e-02
-4.529788841232000514e-05,3.569566166375666536e-05
-7.715826490290401442e-03,7.704426717506947415e-03
-1.900547917086857020e-03,1.878997756931190559e-03
-4.517055211089085302e-03,4.483599210870772671e-03
-3.005716833687757574e-03,3.012090477086404490e-03
-2.984643836774992544e-03,2.990540462280341042e-03
7.574048531056987339e-03,-7.602305777381281049e-03
7.211311682641623547e-03,-7.236582552624611087e-03
-4.171227882343075781e-03,4.146165140287211802e-03
-5.457881662685340127e-03,5.459800992400417816e-03
-1.856631772105083594e-02,1.854634243198378940e-02
-5.056393652075327934e-03,5.075434967549888494e-03
7.802815469375490353e-04,-7.617892654990846522e-04
7.404477824153808153e-03,-7.393808029978317549e-03
2.540468036565951375e-03,-2.561834207904455183e-03
-4.761874851354042960e-03,4.764934128733111160e-03
-9.198192756753147126e-03,9.202428802659931920e-03
4.091226844726647896e-03,-4.119410140097050713e-03
3.199883493469173664e-03,-3.192446183010946500e-03
5.392264788912231460e-03,-5.415933162561356248e-03
5.549011115679327406e-04,-5.693876226276215272e-04
-2.955205538526722159e-03,2.933617542180896008e-03
8.538766781318343725e-04,-8.314829860465517341e-04
9.537197717181215969e-04,-9.382125749636565553e-04
-5.492233397431241573e-03,5.485087990641990784e-03
-5.355721018028875187e-03,5.376234228644075595e-03
8.850145364435773460e-03,-8.840932946257104921e-03
4.421267684478366773e-03,-4.408742933984094274e-03
-7.231887456443924535e-03,7.266005309212611105e-03
2.369607101713949466e-03,-2.346984104912991798e-03
1.399240511844017799e-04,-1.289700348633603067e-04
-5.388974512246795696e-03,5.406790617277347152e-03
-5.401914396060532308e-03,5.388909938534419339e-03
-3.344510407198750604e-03,3.306474917459434164e-03
-6.514486200280207237e-03,6.494980958294902657e-03
-6.374411012952036111e-03,6.357503971410567896e-03
-6.571572953290670711e-03,6.569933128036586564e-03
5.882479743570544033e-03,-5.878938061599055936e-03
7.684293209993411575e-03,-7.671405910452010722e-03
-3.994286944506351272e-03,4.001176046395726188e-03
-1.540807809028430647e-02,1.542208396185237862e-02
-7.708622300191539855e-04,7.973389633700516755e-04
-5.405388550712291428e-03,5.408185944451230145e-03
-3.740004492927040229e-03,3.715590759927667620e-03
-2.127030830602661543e-03,2.155450806813176325e-03
-6.367030093431993998e-03,6.397509717476083761e-03
-9.221764673234246479e-03,9.261491544052369296e-03
2.972579335867319133e-03,-2.997831265048534616e-03
3.410664800180127337e-03,-3.441782884045272752e-03
5.356760792562364840e-06,-2.162732901469399021e-05
1.967654830586928333e-03,-1.995601298579702688e-03
4.887400521388449853e-03,-4.898526847052241118e-03
-8.645068719664731130e-03,8.657060203959395656e-03
7.964385153240216564e-03,-7.969696304277866863e-03
-8.336006145684799265e-03,8.326205013953955764e-03
-3.364927520702553753e-03,3.340851131523792008e-03
-6.958252787144172599e-03,6.933937586290685531e-03
3.381559036122676592e-03,-3.369513775659044134e-03
3.067319643847297734e-03,-3.050526280544207675e-03
-3.942974366160413753e-03,3.965389497233841494e-03
-6.228454168606915343e-03,6.250625979109402167e-03
-4.269238288507509402e-03,4.271731416212646779e-03
-2.093165375333709988e-03,2.106016292002085323e-03
4.103521078359415909e-03,-4.111452700304199862e-03
1.290096342994184178e-03,-1.292222353183654403e-03
3.497105863314089406e-03,-3.464322741590635402e-03
-4.972198523824632697e-03,4.959949979157537991e-03
-2.268303185672359591e-03,2.309264886699539856e-03
-9.024443867382474867e-05,9.107249718395284653e-05
-3.540623256034172717e-03,3.547726235820799264e-03
-1.276729917917575861e-02,1.280105124524031322e-02
-8.891919086855519169e-03,8.894850882807470507e-03
-1.112685299923995988e-03,1.105162850104227708e-03
2.674159195850246348e-03,-2.686701113277199359e-03
-2.854787302719818086e-03,2.864605432323604536e-03
1.936555645825550117e-03,-1.957662577711170339e-03
3.260317570518164818e-04,-3.503197077343014800e-04
-8.054752232224314523e-03,8.048019217510426343e-03
-2.109054827923425093e-03,2.099165423427323644e-03
1.460307790087974960e-03,-1.481516266919129373e-03
-3.863146114539144690e-03,3.876850451403573636e-03
-1.341831553387652686e-03,1.343882885012912800e-03
2.986473298891218538e-03,-2.993091103578919554e-03
-1.509125378537794476e-03,1.500670081099330765e-03
3.795546559570448582e-04,-3.773605425646291080e-04
9.081373221693182915e-04,-9.157097826542885026e-04
3.297180505773180097e-03,-3.291987299525076308e-03
2.689398452000663423e-03,-2.696991704339780221e-03
1.472548603736988744e-03,-1.506387333225543169e-03
5.251710269368284768e-04,-5.441850187868510708e-04
-1.473946611915978025e-03,1.455691680209443301e-03
-2.327170250741504749e-03,2.337899660199447682e-03
-1.912660249084253495e-03,1.913268349057182334e-03
-5.481069240964366604e-04,5.478608360531938551e-04
3.340987316068589285e-04,-3.284755040722651584e-04
1.332197494486844075e-03,-1.333998306472333707e-03
1.748678104256403028e-03,-1.766631404083820285e-03
1.079238441872106121e-03,-1.082717667487777258e-03
9.490971470838400993e-04,-9.466072328350644055e-04
1.223966963807887175e-03,-1.214439751520289676e-03
1.228794644119573717e-03,-1.219908635847971731e-03
1.181700075884585012e-03,-1.168665267612711009e-03
7.077072720319126401e-04,-6.997669170011679195e-04
6.163818948173254266e-04,-6.009740502793417755e-04
1.284448747748793756e-03,-1.262477633529171094e-03
1.072676687759654404e-03,-1.052167923379446809e-03
7.110255386531782714e-04,-6.954594833863085709e-04
7.532924265764958304e-04,-7.412339672938855024e-04
2.306296834563527440e-03,-2.307673751907200234e-03
1.019224987871360016e-03,-1.029574212271515367e-03
1.296779902262796885e-03,-1.296394311414941552e-03
1.432049986450110524e-03,-1.414614582734241739e-03
2.709254131808139839e-03,-2.696090648772382983e-03
2.709254131808139839e-03,-2.696090648772382983e-03
1.603067981643792632e-03,-1.583690926604998470e-03
3.905341689629854740e-04,-3.725481074358188657e-04
1.206031110062947458e-03,-1.191398240763758736e-03
1.206031110062947458e-03,-1.191398240763758736e-03
1.152476114931063949e-03,-1.139278783592181888e-03
1.881713201962784522e-03,-1.870141967770987774e-03
1.930440516782967178e-03,-1.916792540614907286e-03
2.239198762310400537e-03,-2.230110031812043009e-03
2.125298354648141440e-03,-2.127554303630612223e-03
4.867241826627672469e-04,-4.850973350933647662e-04
4.867241826627672469e-04,-4.850973350933647662e-04
2.760151387001525194e-03,-2.775091832297805258e-03
9.102776502061565205e-04,-9.132463923814589666e-04
1.329020549488206006e-03,-1.326090937358323594e-03
-1.518183227304998814e-03,1.499966928961636711e-03
-7.785898666952857389e-04,7.608542604525179954e-04
8.464867589650074044e-04,-8.769865703351884282e-04
-2.005208611763344107e-04,1.777645811057598259e-04
-1.046495226002080049e-03,1.026905442200603874e-03
-7.658176500649465507e-03,7.614074153131592665e-03
-4.309209344762604359e-03,4.304945694283243869e-03
-2.890446177125571663e-03,2.897562804027733509e-03
6.630953801273393750e-04,-6.662810388892706145e-04
-7.313115771195391208e-04,7.184537008829454049e-04
-5.909945820875781844e-04,5.752822411483986525e-04
-5.360901711044492113e-04,5.620390320929400307e-04
2.658845026380848853e-03,-2.630110070340490117e-03
-2.924810490214481765e-03,2.905946973565597460e-03
-5.445852890890204648e-03,5.440609339270136187e-03
-4.389512865592024200e-03,4.381096406953124099e-03
3.657346075398088176e-04,-3.837355003857142663e-04
-3.772951096656613351e-03,3.772042616961456072e-03
-4.161362060086327454e-03,4.157923975330819581e-03
2.144281840042332188e-03,-2.160831095626378987e-03
1.530267863188243841e-03,-1.566331487678343688e-03
8.322771796913501843e-03,-8.306811245939830016e-03
1.036609991830357395e-03,-1.054402035444077651e-03
1.216841543037650871e-04,-1.078255783121747784e-04
-2.928779389791410365e-03,2.962800855621325335e-03
-3.381447946374664931e-03,3.400054400481487393e-03
-7.447986144506921376e-03,7.450103671104412080e-03
-3.419206664660140449e-03,3.438863578982551909e-03
-3.176516752162452870e-03,3.205203392024136028e-03
-8.771995128433837663e-03,8.743289152341807147e-03
-1.082969811805907338e-02,1.086140858550903657e-02
-1.282388077745850530e-03,1.272160839128570926e-03
1.178717806858327853e-02,-1.181638198225104866e-02
1.516406690527827457e-02,-1.514593628266807865e-02
7.451590522349989774e-03,-7.425572667408305780e-03
-2.952750705064294788e-04,2.938315002482953017e-04
1.231887834433662227e-03,-1.253341006922353579e-03
1.837136006982019194e-03,-1.850991822289382600e-03
4.979728823869829886e-04,-5.004898456791780645e-04
-7.448947160799772836e-03,7.450857298234620125e-03
-2.416976668396017720e-03,2.421878623310146257e-03
-8.212744978584199038e-03,8.215674144129289300e-03
-1.363206486314413705e-03,1.374306303154802095e-03
5.038064608952213391e-03,-5.002132435262741060e-03
2.132553839615128431e-03,-2.101314383469809251e-03
2.204027335128014645e-03,-2.197207643388154018e-03
-4.191732270437129385e-04,4.093284324163902195e-04
4.715927259523487736e-03,-4.721761572299421929e-03
2.277046987289475886e-03,-2.221859587934224816e-03
7.975410614913578874e-03,-7.931209953015622843e-03
1.510960699237062126e-03,-1.497914412514329049e-03
-4.882718133458684401e-04,4.961210812816269121e-04
-2.462246895505837418e-03,2.451914445104773702e-03
2.553353569057546704e-03,-2.577513145846915734e-03
-6.563714088907802785e-04,6.227378844370775549e-04
-6.211777124374343213e-03,6.164919590119218723e-03
-6.672020092253082638e-03,6.657073340561730189e-03
-6.830756010237104027e-03,6.821072959913438739e-03
2.214282744173615668e-03,-2.180344109047242882e-03
5.122169391843840562e-03,-5.134503425509764039e-03
3.779072637403809928e-03,-3.776846634873980580e-03
4.015253203252444267e-03,-3.975491328835994292e-03
-9.263461926862375656e-03,9.257331076007032852e-03
-9.182188594960120215e-03,9.176597476974569095e-03
3.018266460780162749e-04,-3.217913468024844988e-04
-7.931340406453744191e-03,7.927002050276155468e-03
2.893409374827428642e-03,-2.902728437284146212e-03
-1.985657477978118192e-05,3.203731380892050457e-05
-1.273042849480905681e-02,1.275349587548592865e-02
-7.526451422382392925e-03,7.517931980546861855e-03
-3.924891537561363275e-03,3.939760275329311050e-03
-7.465596693966393589e-03,7.451326385234842593e-03
-3.166677713351907287e-04,3.065631748916787069e-04
-3.761330440202046051e-03,3.762210831501031430e-03
4.539806867951098543e-03,-4.552388490938576344e-03
8.075257181764435715e-03,-8.084377736830227271e-03
3.178962783499251609e-03,-3.181988455127655359e-03
-4.356260541701313833e-03,4.354283499086436700e-03
-1.621756107986241369e-02,1.620072058340946489e-02
-9.771424034806753742e-03,9.724733117745564329e-03
-9.366677794216175801e-03,9.382170346644826131e-03
-8.556618322267887933e-03,8.562337123952443521e-03
-1.846022005095450001e-03,1.851285299059288224e-03
1.517044769763183911e-03,-1.481119832266992878e-03
3.459730369803534745e-04,-3.244127878869087610e-04
3.991683306702918481e-03,-3.981013397598869887e-03
6.685728477955264933e-03,-6.662850641886534052e-03
4.833221208857113420e-03,-4.809553310243276647e-03
-5.596161694864281236e-03,5.599515309661040954e-03
8.960276316469327615e-04,-9.079294003380449689e-04
6.641600135371949869e-03,-6.650360431288228347e-03
3.511426969013204964e-03,-3.520489096406083981e-03
2.029528735596801848e-03,-2.006086614409648833e-03
1.716036116365872877e-03,-1.705453174593623417e-03
1.863142726563816673e-02,-1.861540480431790948e-02
-2.011148831990749498e-04,2.003084075808824903e-04
1.187258828748887808e-02,-1.189694912669612102e-02
2.123548336847822481e-03,-2.132170112143362811e-03
-1.111076864897722269e-02,1.113610024114919210e-02
2.516994440039513120e-04,-2.392504049524044963e-04
-7.275111176618981497e-03,7.281351809422071178e-03
-7.236338274187782867e-03,7.262243349696292580e-03
-5.877666406626883564e-04,5.836492354057939199e-04
-9.023306640464965819e-03,9.016987127987638462e-03
-3.661476725373894077e-03,3.646867893718625832e-03
-1.110267271426166637e-02,1.111219510755086237e-02
-3.965137127029528911e-03,3.962438208829961554e-03
8.279035138558090909e-03,-8.279941485479639859e-03
1.184931577977642314e-02,-1.187657881774820991e-02
1.574728266312164227e-03,-1.563904023299586077e-03
-1.363350606418389831e-03,1.396086345562747412e-03
-1.493773453664020388e-02,1.494685885825479919e-02
-9.175827644358600446e-03,9.212202816020864660e-03
-7.274614944501422813e-03,7.297094555593681801e-03
1.184548572503088234e-03,-1.179070400887445580e-03
1.978209972318664255e-03,-1.990556999994317483e-03
1.011576746170645726e-02,-1.012650556474727417e-02
-5.118437962856276034e-04,4.775999514777269487e-04
5.890730668258159150e-03,-5.889904716895857407e-03
4.182770175672157961e-03,-4.179363040158702927e-03
-1.880824173685365043e-03,1.877390247709047767e-03
-2.409327790689290687e-03,2.404477753665986740e-03
3.582834191208427149e-03,-3.584991582681629121e-03
-9.365743968794042543e-03,9.337572289493315317e-03
-8.716651312735530788e-03,8.704953823697791915e-03
-6.811053935447504253e-03,6.818131533923606560e-03
3.070535009136779545e-03,-3.048996005679190189e-03
1.348875910534581574e-03,-1.346014740611542124e-03
-9.955359897992704932e-03,9.983523006575465222e-03
-2.315170837817796985e-03,2.341070031768724587e-03
-2.127169149580302127e-04,2.343862691150776635e-04
-2.643605419477671175e-03,2.636040550440233408e-03
7.582182360549397440e-03,-7.572069096414444853e-03
2.435194551011362306e-03,-2.427843718022102120e-03
-3.100513421931608629e-03,3.072698052082774734e-03
-6.835096562618721283e-03,6.823859664930026665e-03
-5.849961461308689908e-03,5.846262690686129457e-03
3.565749306057352315e-04,-3.566427751231193949e-04
7.621863145198987805e-03,-7.631317603099487326e-03
5.082535905459549357e-03,-5.045308500218736308e-03
1.505806235370709409e-03,-1.522091713404509885e-03
1.008808425697914173e-02,-1.007005606644153194e-02
1.039496197788320614e-02,-1.038179699269101142e-02
-5.147632338656000020e-03,5.134920817321122523e-03
-5.635200932885090289e-03,5.635531815631207586e-03
2.775672323874366857e-03,-2.799083938005771099e-03
-4.676641697005314187e-03,4.676788860497776631e-03
-2.619605006151404149e-03,2.651651365062625623e-03
8.835518374802344213e-03,-8.833062529231999402e-03
3.986816999270121308e-03,-3.985002915044930961e-03
1.943402552874064345e-04,-2.182713413156050900e-04
1.688325420890521939e-03,-1.676038063146016981e-03
-3.285887418229062416e-03,3.294148022158205173e-03
-2.534717598758636121e-03,2.584321117122464172e-03
-5.542870748641802285e-03,5.563692121861438765e-03
-5.831662845300639858e-03,5.829763730680786668e-03
-6.269424091093946626e-03,6.258949662793505606e-03
2.484408271207876485e-03,-2.477297138848510213e-03
2.938396109607426671e-03,-2.931996620046624369e-03
-2.470894824709220141e-03,2.457757748195068051e-03
-1.770570884895630468e-03,1.789574414959234881e-03
3.001204348204646911e-03,-3.011547956373745658e-03
4.989860528114460625e-03,-5.002590008103068031e-03
8.851242956528102002e-03,-8.831698591537493273e-03
6.659922982771683889e-03,-6.628255737969501044e-03
-5.732307946824661930e-03,5.741233988829900874e-03
-1.037391591740466010e-02,1.039894819837044321e-02
5.111782163735065047e-03,-5.121243852109052738e-03
-4.459436014274426041e-03,4.442631879494170037e-03
-6.363413959309680359e-03,6.343988237168303283e-03
-1.752734505159810182e-03,1.780555741076703547e-03
-9.755558354244532257e-03,9.782027750143707998e-03
-3.568997141135876825e-03,3.576498052098730715e-03
-1.876931049334003114e-03,1.881614374031655244e-03
-8.844416836501739314e-04,8.525230273501464492e-04
4.114246215911381878e-03,-4.150540709936161379e-03
5.046937525037903430e-06,-8.729882271121754855e-06
-3.182234877295843541e-03,3.173689269322175176e-03
3.275666399592316695e-03,-3.277867576761381557e-03
-4.919715364002878039e-04,4.746433462424777387e-04
1.697795629522339412e-03,-1.702786331425089816e-03
-1.718750700242121458e-03,1.706830903553551966e-03
-6.038012027703063521e-04,5.859794792261193265e-04
-4.929152615324941403e-04,4.931356339340791815e-04
5.466654096772792949e-04,-5.342249135917637908e-04
1.029792824607411511e-03,-1.033550930129800271e-03
1.858045260107674341e-03,-1.864236703614434530e-03
1.852591869194746997e-03,-1.857823292105058007e-03
1.998590853121009342e-03,-1.991529767534775883e-03
1.418685940446429107e-03,-1.411343848220484752e-03
-1.475695050250172254e-03,1.471184110666542500e-03
3.068251377313538733e-04,-2.901459724713314971e-04
-1.327491287984368807e-04,1.204179887999592795e-04
-1.915938555784082011e-03,1.908780135098290739e-03
-3.054272810351498922e-04,3.036463601290110572e-04
-3.654384940141013212e-04,3.645407094362095968e-04
6.616278176520180322e-05,-7.031364593949583652e-05
1.191589290144915315e-03,-1.196100525540526099e-03
8.003564483898111806e-04,-8.196932049060172030e-04
6.569091147194430465e-04,-6.395832656322224816e-04
1.097893561419451686e-03,-1.092785830705333278e-03
1.891826671468278863e-04,-1.722788654945710512e-04
1.843549868351372243e-04,-1.668099811669296534e-04
-4.752081175863300173e-04,4.650414377237509851e-04
-3.222568708352597914e-04,3.025306450911378615e-04
-1.549271237678126923e-04,1.435161373436266241e-04
8.014906312853643409e-04,-8.044775541612704224e-04
8.236578723153656573e-04,-8.264410374848129128e-04
9.153910389476256062e-04,-9.070332823425685019e-04
3.833167177570368845e-04,-3.954885046606232868e-04
6.608716321483755788e-04,-6.623086038039578032e-04
7.274265086716678137e-04,-7.112835074987586747e-04
1.589747111623710353e-03,-1.571397922864153137e-03
1.589747111623710353e-03,-1.571397922864153137e-03
3.905341689629854740e-04,-3.725481074358188657e-04
1.206031110062947458e-03,-1.191398240763758736e-03
1.057491337525232186e-03,-1.044052784502289477e-03
1.152476114931063949e-03,-1.139278783592181888e-03
1.152476114931063949e-03,-1.139278783592181888e-03
1.201203429751273059e-03,-1.185929356436086221e-03
2.361968569850244563e-03,-2.354500238953828768e-03
2.239198762310400537e-03,-2.230110031812043009e-03
2.400516066612256184e-03,-2.399554313056947476e-03
1.960769501534373720e-03,-1.961940797503214633e-03
2.122086805835951811e-03,-2.131385078748303415e-03
2.614583131681238147e-03,-2.620570029460440615e-03
3.509851046591867113e-03,-3.525669540237271523e-03
3.509851046591867113e-03,-3.525669540237271523e-03
3.058535116821075629e-03,-3.076282312171686132e-03
1.252713327666861659e-03,-1.277593201308877815e-03
1.563401117664203104e-03,-1.570896230152661914e-03
9.000755836872585648e-05,-1.303591174158863161e-04
6.656805052007593558e-04,-6.986860091029393344e-04
-2.226469907816595352e-03,2.220904113359054455e-03
-3.040107905119563726e-03,3.048017937601653956e-03
-3.018091277595987519e-03,3.020570089788799425e-03
-1.332424776892258988e-04,1.145602992543141060e-04
1.560112853042368731e-03,-1.579556798688624324e-03
1.447188038831162971e-03,-1.435078552987308943e-03
5.021152135876686285e-04,-4.954866165249847704e-04
2.036203922992425430e-03,-2.032009967834075021e-03
3.379807704173488480e-03,-3.389710366633168041e-03
-2.928386313380768220e-03,2.902495557354296124e-03
-3.144089396839139759e-03,3.125038986182301741e-03
-2.287930589890221390e-03,2.279545822241386098e-03
-1.675549207031713957e-03,1.666660113302815193e-03
2.645953421124433002e-03,-2.638584393486633709e-03
4.422857623481006931e-03,-4.399282800987319025e-03
4.765031552640744232e-03,-4.767694601221646525e-03
4.655044841717085463e-03,-4.671446765878590687e-03
-6.941456697729259280e-03,6.960635499194653235e-03
-7.833912159951458495e-03,7.840673232954434649e-03
-8.551302593379796896e-03,8.583933918887884373e-03
-1.373988521945091433e-02,1.376838085337635416e-02
-9.175946687937159424e-03,9.150143161979793632e-03
-6.204779839222964236e-03,6.226601459058195114e-03
-7.103709779500465629e-03,7.090249484629136158e-03
-2.996730687794414271e-03,2.989840752968980688e-03
-4.850818229644076121e-03,4.873170422385881065e-03
5.601054165136658963e-03,-5.571872515960522854e-03
7.867826846486207157e-03,-7.864816848554201031e-03
5.020631255348732835e-03,-5.015038555854535451e-03
1.459201760357448910e-03,-1.434561953946271798e-03
2.128037206090227940e-03,-2.123690618571418172e-03
-8.813830565182122169e-04,8.594331451548416472e-04
7.791388850839384844e-03,-7.815446662292462390e-03
-2.206981618369111778e-03,2.218388668629396165e-03
-1.300219819855689008e-03,1.261867366287843439e-03
4.475089639308409833e-03,-4.459014566047509939e-03
-3.696978669103926415e-03,3.701063494894068530e-03
-4.761921017724888953e-03,4.744751716177927035e-03
-3.990165712472143293e-03,4.020561952552831504e-03
-8.533654738408761112e-03,8.554419089595484416e-03
-5.269817703618104310e-03,5.275595586589299814e-03
2.445994334979178456e-03,-2.436758817761786045e-03
5.292444034033118652e-03,-5.300525971615197528e-03
1.284110366210714817e-02,-1.280791264232465990e-02
3.133532453736588303e-03,-3.102435970185557935e-03
3.820837460109377352e-03,-3.810905836978477693e-03
-5.076261290175296433e-03,5.080712940330714585e-03
-7.351691356906939591e-04,7.273484400472105330e-04
-4.001697257063207766e-03,3.997501959659225008e-03
3.733697331763265962e-03,-3.748458309953483537e-03
-2.602108887823748658e-03,2.622005195394017107e-03
-3.606966794758011217e-04,3.799161298403573236e-04
-1.520111808369724879e-03,1.524485938113090151e-03
5.910886917655350757e-03,-5.892021825967113172e-03
4.947111728879440007e-03,-4.933922724389609368e-03
2.628398635012921258e-03,-2.594073316843900200e-03
2.070067925640201728e-03,-2.068038555691854418e-03
2.396086948141666379e-04,-2.216595253227330133e-04
4.591976235046043610e-03,-4.603501621386961278e-03
4.054913204473711667e-03,-4.074300613325134920e-03
-7.633626927593169069e-03,7.614226114110839681e-03
-3.653350696459685149e-03,3.701019655089001978e-03
-4.562986537932205502e-03,4.616857660020328574e-03
-2.263985428198899991e-03,2.293257575719462923e-03
-4.992948001028142506e-03,5.025148743564275371e-03
3.408207262875530275e-03,-3.377265407632295928e-03
5.141677011552294157e-04,-5.154295761926673373e-04
6.417122009939703504e-03,-6.436449325386874899e-03
-3.140742248896040249e-03,3.147370256902692291e-03
3.790202266969462924e-03,-3.798112908936693895e-03
9.213234417482222454e-04,-9.516904327462900187e-04
-9.605571782892933022e-03,9.614723199005491272e-03
-8.381170688454392739e-03,8.390708331969714065e-03
-1.250940956338592903e-02,1.255312061338978782e-02
-6.564233972062362941e-03,6.571004304598417750e-03
1.312151602435446263e-04,-1.456377027657003171e-04
-3.958918874838587496e-04,4.045486582777923731e-04
3.584585901583506144e-03,-3.583033113389136846e-03
6.726851726660618667e-03,-6.715430267086604232e-03
7.370816158060462808e-03,-7.343968201459664252e-03
8.224869427943056963e-03,-8.216134127886487795e-03
-4.201633382411668928e-03,4.221243590197406095e-03
-3.977949961686142767e-03,3.982307833418991840e-03
4.349706807347239793e-04,-4.273158786007777410e-04
1.075045048050218832e-02,-1.074474227675099001e-02
5.840778806092962808e-03,-5.859624154207898963e-03
-2.101414896032013143e-03,2.113340368227564769e-03
2.364796922011726688e-03,-2.362485759375020436e-03
-6.805657536665163376e-03,6.771351620190086025e-03
8.636030327071891541e-03,-8.598058663749703207e-03
-2.212234711024813408e-02,2.214614940842165453e-02
6.308535829741434078e-03,-6.321788267703603269e-03
-4.241019029365532093e-03,4.187946767959707661e-03
-7.761247984160496785e-03,7.800663712599281013e-03
5.501107123587947907e-03,-5.501425828096597262e-03
3.424209603020867722e-03,-3.413653390972553811e-03
7.407469447057632092e-03,-7.401743444831791752e-03
-3.969586481108410697e-03,3.998161268807757379e-03
2.037516512268331987e-03,-2.036140437775271414e-03
-1.751783694824118789e-04,1.475540085044143397e-04
6.898636641268574357e-03,-6.885619295051476248e-03
-8.592299501339567373e-04,8.946002977782778996e-04
-5.446537557920954438e-04,5.724988782476688777e-04
3.741413781773336462e-03,-3.726953075490855617e-03
5.762570980245925942e-03,-5.724112388478220029e-03
2.307715673113627883e-03,-2.317434573284275681e-03
-4.335777723335112153e-03,4.327824178070127301e-03
-1.909380885610508557e-03,1.922347657425017668e-03
-5.003436328129974575e-03,5.013255926809357006e-03
-7.917670267871296241e-03,7.930910399011286901e-03
3.312738622015934387e-03,-3.337170488214802333e-03
-3.334055514257349209e-03,3.329619918814148705e-03
-2.746072512993813237e-03,2.728888266206900334e-03
6.740781508806451341e-03,-6.753919842377728924e-03
1.163618226429440246e-02,-1.164451279255503992e-02
6.677417192618126688e-04,-7.097564036439433285e-04
-1.285769140821581367e-03,1.295395978703886997e-03
-2.864177157824144681e-03,2.871096326203164805e-03
1.804860815506339903e-03,-1.817427377637663476e-03
-5.823768101877972204e-03,5.840035777247885342e-03
3.782186769305447786e-03,-3.772759834328160040e-03
-7.960171655320775119e-04,8.147737542294181514e-04
2.710120782366606937e-04,-2.869600271754202295e-04
-4.300253800191025828e-03,4.300531990320010690e-03
-3.074041575958791524e-03,3.066026355262838586e-03
6.504780580779984805e-04,-6.389209638461779616e-04
1.143917846339822381e-03,-1.161050997513875379e-03
-1.786016500116231710e-03,1.759794613068841208e-03
-4.269702806756671155e-05,1.851100899471810998e-05
3.868011652614783153e-03,-3.874818116009755547e-03
-2.752696853747390714e-03,2.740272832451952183e-03
-8.363091273776877485e-03,8.360186394735381887e-03
-5.634849432020960606e-03,5.616739177551146461e-03
3.119118260747849678e-03,-3.106505118804113539e-03
3.048551345815608826e-03,-2.997826733419853805e-03
7.350241372333795285e-04,-7.458663602735631296e-04
-8.906452179258773439e-05,1.012964145998902679e-04
3.837163708746784124e-03,-3.831391506949988462e-03
5.180151069248401094e-04,-5.570175318204016648e-04
-4.521144382026498270e-04,4.675351491569484453e-04
-8.555075002589380626e-03,8.555079401643182410e-03
-1.813732023660241058e-03,1.841696059594367073e-03
8.518738803973224891e-04,-8.409486257256758085e-04
5.174451307891365232e-03,-5.165955085644380329e-03
-6.520878075279708599e-03,6.555742404685357093e-03
8.245689101016785705e-03,-8.292795682978885627e-03
-1.947750373487990580e-03,1.946412607106458000e-03
-4.613417519484666086e-03,4.604265313142797897e-03
-4.131601237789042300e-03,4.129306217204593843e-03
2.289826743145536875e-03,-2.300567108772085846e-03
-2.496196234091453258e-03,2.501389195684523836e-03
-3.683088102868155560e-03,3.681222981074404061e-03
-1.011478057304226802e-03,9.881967838741361702e-04
-2.085554839928538927e-03,2.105071607087184368e-03
-3.404344554223111968e-03,3.399799901426946765e-03
4.118732539434124922e-03,-4.132090344172641497e-03
2.489001596546064083e-03,-2.495094240451582908e-03
1.465792892300823774e-03,-1.441759489332204670e-03
6.068591881519013950e-03,-6.080360405511979829e-03
1.335951789349169513e-02,-1.334093777502844309e-02
3.013136509302949016e-04,-2.896956916805904858e-04
-6.464871676863185798e-03,6.455303325256098873e-03
-3.960763717445502270e-03,3.952027520240489027e-03
2.628525730265381197e-03,-2.654983943389799088e-03
3.717555411926044048e-03,-3.738989813216471014e-03
1.341068631442344540e-03,-1.341102562097755326e-03
-7.095579760382707615e-03,7.104772600784149510e-03
-4.809829380739490123e-03,4.848863122374475268e-03
-1.097489663648220683e-03,1.121496063157258975e-03
6.641404463535804199e-04,-6.851315689992449210e-04
1.865019426745791143e-03,-1.890446759466423831e-03
2.270294035801949471e-03,-2.284680036897380421e-03
7.854195100399702020e-03,-7.866847155241456571e-03
2.850167903771452012e-03,-2.861309438092188209e-03
4.062472845950631725e-03,-4.070636068515386813e-03
1.893252953228307701e-03,-1.902263409336707066e-03
-4.365346304214289160e-03,4.347204042517685899e-03
-5.585555401267655248e-03,5.546711884197552157e-03
-1.076197871297953365e-03,1.081111253290147154e-03
-9.183964538660168526e-04,9.244264789974651749e-04
1.156360923617892611e-03,-1.157666847652201805e-03
8.531467001430047368e-05,-9.070041428781383487e-05
1.416375527293738286e-03,-1.401547652310208836e-03
5.566122359840339120e-04,-5.534108054407964718e-04
1.726835382350881123e-03,-1.732206473928188167e-03
4.687364188884853467e-04,-4.605104730893627902e-04
2.456037580687877881e-03,-2.437337718046149373e-03
2.487547392740613035e-04,-2.353954000867878422e-04
-4.862101228792513113e-04,4.773271028090431719e-04
1.266307324864317241e-04,-1.270907064957012202e-04
1.266307324864317241e-04,-1.270907064957012202e-04
7.721891886051027295e-04,-7.828654451272502651e-04
2.894479647605526103e-04,-3.022123314434334621e-04
3.962027265301827617e-04,-4.195622930244603875e-04
1.363962223962417652e-03,-1.352660644359371086e-03
4.986579503317957940e-04,-4.999906392422233522e-04
1.891826671468278863e-04,-1.722788654945710512e-04
1.722239521366100549e-04,-1.597268784296980491e-04
-2.459499613917313877e-04,2.492621710710005048e-04
1.755730241952934952e-04,-1.748181853150389817e-04
-4.102671610552138776e-05,4.096040916231882069e-05
-4.102671610552138776e-05,4.096040916231882069e-05
-4.102671610552138776e-05,4.096040916231882069e-05
3.905013369618310173e-04,-3.967472891765323035e-04
3.905013369618310173e-04,-3.967472891765323035e-04
1.576360140083521563e-03,-1.566878455766660804e-03
2.367547057636454431e-03,-2.354243185212963677e-03
1.410562850837534946e-03,-1.393092164246392817e-03
6.591585227758003712e-04,-6.402654967439671370e-04
1.349841330777073111e-03,-1.345357914317604200e-03
9.732918541449180321e-04,-9.609730249744340364e-04
9.511246131148957906e-04,-9.390095416507989552e-04
2.218875260832157124e-04,-2.081463574720572812e-04
2.754425212151111473e-04,-2.602658146436235306e-04
8.136863627399435394e-04,-7.992704566478209391e-04
8.136863627399435394e-04,-7.992704566478209391e-04
1.542923449771664004e-03,-1.530133640826678324e-03
1.846854014987501244e-03,-1.837982247696074529e-03
1.702418034663996530e-03,-1.702511703258828427e-03
1.682325161873629441e-03,-1.672368741568722042e-03
1.682325161873629441e-03,-1.672368741568722042e-03
2.929541768992890115e-03,-2.937791981277655413e-03
4.128457194605847369e-03,-4.143960348411093730e-03
1.562325131734453899e-03,-1.566640936520841132e-03
1.290967597007360718e-03,-1.295335012740301758e-03
-8.997837816983278404e-04,8.606848388798346442e-04
-9.858480253539087489e-04,9.734071117714235234e-04
-2.857844014928292986e-03,2.840281455271624275e-03
-3.023085738874385295e-03,3.009453098431633111e-03
-5.155831115468508712e-04,5.272873688374961169e-04
-2.032036215968123245e-03,2.045308592724737803e-03
-1.295057355097897116e-03,1.276139663440944245e-03
-1.145097118354590320e-03,1.127592828199185842e-03
5.475695436760527959e-03,-5.469389152286228614e-03
-1.319336906704531714e-03,1.332559614640906834e-03
2.656035311644044938e-03,-2.660630044111446033e-03
-2.829946866091958418e-03,2.833919392805752616e-03
-3.027242983304951219e-03,3.006918609510846659e-03
1.360429988083444296e-03,-1.376558269477554802e-03
5.066098912603323422e-04,-5.155074524596947204e-04
-7.678786937979878609e-04,7.520222370982943168e-04
3.337801831790428251e-03,-3.322925786578390973e-03
2.276420173073195885e-03,-2.243148931526762341e-03
6.098968651170779375e-03,-6.112148800421113477e-03
-1.123972388559555400e-03,1.155326295302322448e-03
4.857061689780028425e-03,-4.865759165206764818e-03
1.130940381910375161e-04,-1.342339123591287985e-04
-5.582166773520840647e-03,5.555358371600329324e-03
-5.677375001616378168e-03,5.677324041474052577e-03
3.162925583283546921e-03,-3.140784405502940451e-03
9.631590321941089008e-03,-9.635864501093369117e-03
1.057383243330425014e-02,-1.059213015152806608e-02
-4.845645669720790964e-03,4.830715193635728294e-03
-2.125771538239922508e-03,2.103003630797104645e-03
-1.341292682393222229e-03,1.327939396316062419e-03
1.282405286034978388e-03,-1.299137612143215362e-03
-9.387468813929987152e-03,9.362359970541328513e-03
-9.429639590914447658e-03,9.431134994187136134e-03
-1.243488659990484545e-02,1.238636097748035438e-02
-4.564220113992738768e-03,4.544673845856300742e-03
-1.530438234834592378e-03,1.534936122145130581e-03
-9.593022945420876446e-04,9.659349363131203509e-04
7.530368551771132214e-03,-7.527871888803207463e-03
-4.060230758619919121e-04,3.974967386406743990e-04
3.296649261659881282e-03,-3.315552368960404585e-03
4.436728555374796633e-04,-4.525227096767226224e-04
-8.903503908170977768e-03,8.895254614882001226e-03
-1.518193306803095445e-03,1.535309564375469862e-03
4.483858124651807285e-04,-4.457990725433123185e-04
-1.613302235025578912e-03,1.630761925480623447e-03
4.114067647318556239e-05,-3.668974039860662192e-05
5.791783045080944837e-04,-5.780424326394267452e-04
-3.434665457625100081e-04,3.449698398602783658e-04
-4.580987277954289699e-03,4.615651322380975342e-03
4.423911848670784462e-04,-4.286630161289597929e-04
-6.622751537074412359e-03,6.598856352648499977e-03
2.271571441558068762e-03,-2.258174176804388783e-03
-2.001785795995173704e-03,1.979683467853372673e-03
-2.947141907330628726e-04,2.845432571355722778e-04
-3.923239713329638653e-03,3.916674808639711812e-03
-4.224756995011519009e-03,4.226613906327465926e-03
6.656500274219054672e-03,-6.631725249647447452e-03
9.810572856052256902e-03,-9.779958245625379465e-03
-1.165392217198617068e-03,1.195500460312945695e-03
1.480626047026393707e-03,-1.475418099095953273e-03
-2.473048612882753055e-03,2.451820960534442304e-03
-3.273646027619722980e-04,2.915658372098684664e-04
-3.151649752359324871e-03,3.113749824655633568e-03
-1.572638543309098783e-03,1.566831043137497997e-03
1.567711752461243765e-03,-1.507733584602723035e-03
-3.792129696414184986e-03,3.779309837998393127e-03
-1.584361558464799204e-03,1.598241296821851848e-03
-1.844593454013851745e-03,1.863056063796981673e-03
2.091187859537160625e-03,-2.119704449961869446e-03
9.114770538857855375e-03,-9.122250857982154224e-03
4.707574703069210449e-03,-4.711961731922079989e-03
9.468119919536046366e-04,-9.248185076353599571e-04
8.314556365052003239e-03,-8.306162728609164936e-03
6.641573543603362419e-03,-6.656347233976068513e-03
-1.344183300602676311e-03,1.354210469731869726e-03
1.412952584782046659e-03,-1.399612384194744326e-03
-9.849298488462368464e-04,1.024085919050659026e-03
-1.956280594697143438e-03,1.964264235531336476e-03
9.133167733419359294e-03,-9.094585537483526952e-03
1.583057866727557300e-02,-1.580448682977290617e-02
4.501771799547340559e-03,-4.495703472363807122e-03
3.174285218382861488e-04,-3.042105842222341374e-04
9.252777661328285760e-03,-9.215777863451615412e-03
3.416947859246207211e-03,-3.441799074971697413e-03
-1.803800662564821519e-03,1.787149178322723804e-03
-7.757911089727831215e-03,7.754494809397224388e-03
1.316493189653613087e-03,-1.314193688525420664e-03
1.523164437942648537e-03,-1.521814417569156358e-03
-6.090477214449836535e-04,6.206397771053756866e-04
1.814809184845989120e-03,-1.793926165320266965e-03
-6.049815220463894590e-03,6.039899955914492143e-03
-1.357257735823596233e-02,1.357456420387896656e-02
-4.888454118683622368e-03,4.894466811756116413e-03
-2.325226119230437358e-02,2.321405045449911886e-02
1.628956778518440666e-03,-1.641252757920806790e-03
-1.574469945139547137e-03,1.599040177795153523e-03
1.422764765065996986e-02,-1.419776234211758519e-02
9.306988782442803670e-03,-9.290805243532514537e-03
1.050086037926984024e-03,-1.075603392095997876e-03
3.276872470999787467e-03,-3.288689657387557173e-03
5.562866890383098492e-03,-5.594309157201370411e-03
-3.124369284158693208e-03,3.156995098198242620e-03
-5.243152189878762075e-03,5.250459637353435509e-03
3.259796119075324822e-03,-3.255852187543810394e-03
1.159534518846781336e-03,-1.169770134161643915e-03
-3.335267180612470992e-03,3.326052320049078734e-03
-4.201678848008176190e-03,4.214721264133654451e-03
-2.111688065332560291e-04,2.633843660533599033e-04
-5.148068897823706441e-03,5.111904461026402398e-03
-6.930000478235611230e-03,6.937662985102966903e-03
6.491219679590765068e-03,-6.516640118768127037e-03
-1.610883276634419384e-03,1.579534691536703828e-03
-1.389063911754747282e-03,1.381026281680788979e-03
4.092461345403896819e-03,-4.096259028376714705e-03
-5.044899343608847796e-04,5.118593598898567732e-04
2.797510822221446866e-04,-2.731723016061148859e-04
-2.400875025142785546e-04,2.286207009158744842e-04
1.402065249987191620e-02,-1.401293186901844331e-02
3.205425631945197154e-03,-3.216474160323615477e-03
-4.902934176638988444e-04,5.020781651247599887e-04
8.909733208142494969e-04,-8.592027450540648753e-04
-1.190968529456368219e-02,1.192119005889366416e-02
-5.971954485007555623e-03,5.972686183522518850e-03
-5.085190283813491655e-03,5.136855589979854968e-03
-3.633442369536092880e-03,3.635495337328128844e-03
-6.336734798663522586e-03,6.322435339018662483e-03
7.233271759477848117e-03,-7.274452175769475192e-03
1.111560064949781990e-02,-1.111854592093510646e-02
4.339431159471569127e-03,-4.340981863238621910e-03
6.620407039533408693e-03,-6.631606139190940850e-03
2.308780230489419511e-03,-2.339522455609517691e-03
-4.575237980343815902e-03,4.552697616204619095e-03
-3.938546063457270922e-03,3.918564134896407661e-03
-2.807064448785471632e-03,2.804797901240685312e-03
1.390691691991556176e-03,-1.373186081321945036e-03
-2.046627210848994596e-03,2.067330891916264839e-03
2.862693398079330705e-03,-2.826686291107544449e-03
1.387380786253125664e-02,-1.384676241751976039e-02
3.229563746532476860e-03,-3.238343670820877443e-03
9.488865463982422768e-03,-9.474383753607309652e-03
-5.847165917585855910e-03,5.864707027518760094e-03
-1.092603333903143566e-03,1.108433660165938006e-03
-1.202797031806256004e-03,1.216292652315175077e-03
4.658425673993158757e-05,-2.662777085072021027e-06
2.148445519124279716e-03,-2.154118542955130080e-03
3.499841955994324565e-03,-3.521605081610565662e-03
-8.395220084468437999e-04,8.377406228333187863e-04
5.470516641406884123e-03,-5.487575498787047000e-03
7.777717145775554786e-03,-7.794811582135047212e-03
3.712896900599371806e-03,-3.703605463486357805e-03
-3.294786859352019735e-03,3.296666588634199289e-03
-7.106702084655684704e-03,7.103546329493876273e-03
3.216856769037795827e-03,-3.217900359242606683e-03
-2.801316083247244477e-03,2.782247470391683783e-03
-6.817123932398434089e-03,6.824214709555415613e-03
6.214048530610412173e-03,-6.217482592943376560e-03
-4.009230459078141733e-03,3.983127061168794357e-03
-1.057514168554400539e-03,1.055040354129419509e-03
6.952121591330619362e-03,-6.958659813662270224e-03
3.786642969197768268e-03,-3.808944151608025484e-03
3.168882902473809261e-03,-3.161126682195768839e-03
-1.533645265212481680e-03,1.525072713480045807e-03
-9.764435858388334066e-04,9.626490090790282110e-04
-2.527957004120992557e-03,2.547561554069580417e-03
-5.362926874174925654e-03,5.352551407770318043e-03
-8.367404432348433257e-03,8.377045857043439320e-03
5.790695070903755307e-03,-5.791150635906768332e-03
9.588488474191501215e-03,-9.602277524731223091e-03
2.254376915849129383e-03,-2.239601484748460040e-03
-5.852294193277270129e-03,5.868340598854700739e-03
-6.057283249569178803e-03,6.075401882443951483e-03
-3.447787728478466252e-03,3.478218353724565632e-03
2.725144844722692493e-03,-2.717548566072720568e-03
3.550272961465393128e-03,-3.544961287877121132e-03
3.490018581848546887e-03,-3.512667072010080323e-03
9.319849448077412255e-04,-9.555123512659369602e-04
1.844014106578286500e-04,-1.887546176688276406e-04
-5.644903828128664328e-04,5.715865417254673399e-04
-4.114518727693032411e-04,4.194197775593310807e-04
-2.962641731829503480e-03,2.947092517036154890e-03
-4.278508210690267627e-03,4.242337281055242118e-03
-7.827078744986355058e-04,7.549413583056062893e-04
-8.032739525669560510e-04,8.386173568289363505e-04
-9.529846779010918510e-04,9.717665877505080865e-04
-4.923986486683338339e-05,6.367365045355726600e-05
7.673039877828265849e-05,-6.502982798906270599e-05
-2.285935700250705193e-04,2.369984313284738159e-04
1.116370460473873217e-03,-1.131115405041766215e-03
-1.857398563626111616e-03,1.860688415302661717e-03
3.614966630935759749e-04,-3.530140490542495592e-04
1.128476583452127081e-04,-1.156537668149270519e-04
-4.756197120811469646e-04,4.730812389705225485e-04
-4.419176540623702952e-04,4.477105728652351559e-04
4.020078861537942938e-04,-4.048771546144694952e-04
4.318785538479599675e-04,-4.466799767652442185e-04
4.945129966683672060e-04,-4.935226598117571336e-04
-4.668657064656689067e-04,4.560447624835740140e-04
-4.141978976042913420e-04,4.269843053989236963e-04
-4.093702172926087031e-04,4.215154210712783955e-04
-4.093702172926087031e-04,4.215154210712783955e-04
-4.093702172926087031e-04,4.215154210712783955e-04
-4.104563413787137784e-04,4.169739703117608513e-04
-8.154130961224422209e-04,8.234213678347939444e-04
-8.105854158107502578e-04,8.179524835071431141e-04
-7.228815962235668078e-04,7.208700324256126250e-04
-8.105854158107502578e-04,8.179524835071431141e-04
-5.490617993335517076e-04,5.607980806197342431e-04
6.958185796642503407e-05,-7.123089668967320432e-05
1.204124467949960241e-03,-1.199747465248978372e-03
4.230854388176181666e-04,-4.098866993214521858e-04
4.230854388176181666e-04,-4.098866993214521858e-04
7.682471613478530524e-04,-7.641156148165383901e-04
7.146921662159790847e-04,-7.119961576449667469e-04
7.682471613478530524e-04,-7.641156148165383901e-04
7.682471613478530524e-04,-7.641156148165383901e-04
-3.061516482141033823e-04,3.209764848573656263e-04
6.206042437453329142e-04,-6.144947301387186254e-04
1.349841330777073111e-03,-1.345357914317604200e-03
1.349841330777073111e-03,-1.345357914317604200e-03
2.754425212151111473e-04,-2.602658146436235306e-04
1.164174193139116487e-03,-1.163507061254545312e-03
1.164174193139116487e-03,-1.163507061254545312e-03
1.164174193139116487e-03,-1.163507061254545312e-03
1.722318804523159273e-03,-1.718586706973349249e-03
1.443597325165143315e-03,-1.453605837838520742e-03
3.014078257117239396e-04,-3.069431426704502205e-04
7.527237554825022504e-04,-7.563303707359981523e-04
7.078897727240683916e-04,-7.356400130420647941e-04
-5.018105364801170526e-04,4.969281077778830774e-04
2.432113094425174875e-05,-4.715492368295946801e-05
-5.352581542392611212e-03,5.339720902448555177e-03
-7.378007084787878336e-04,7.241231842705987990e-04
-1.963650854032493107e-03,1.940768064488507466e-03
-3.672307099617381707e-03,3.659178048408032700e-03
-1.586725123864382060e-03,1.575261459376385998e-03
4.017755608338141604e-03,-4.040197258547538126e-03
5.524061624861306176e-03,-5.520245422169553669e-03
3.557855019535613537e-03,-3.567863504343171937e-03
-3.264410965013266053e-03,3.242564784804323821e-03
-4.065790397918241442e-03,4.068595644867248513e-03
-3.937771669354864570e-03,3.936587585109042019e-03
3.572674046564054771e-04,-3.785758139700050318e-04
8.841277877837895940e-03,-8.852050034592509609e-03
5.449391729215009167e-03,-5.431213623155650184e-03
-4.484809661898561651e-04,4.812153734785587413e-04
-2.210988825336385275e-03,2.214281254933035854e-03
2.123560021254877229e-03,-2.126780336091017420e-03
2.069574938472868234e-03,-2.061146961033900708e-03
-2.935897501951714814e-03,2.960745181955778006e-03
-8.238196146114460956e-04,8.060627687808537235e-04
-2.349831078559818515e-03,2.330853606787603154e-03
-1.872305437595808437e-03,1.859736108519393629e-03
-5.714955185149730261e-04,5.640410184930018779e-04
3.055853205731436963e-03,-3.095020156086434986e-03
1.970923128159627301e-03,-1.986045529540852658e-03
2.258381107604763051e-03,-2.260221845099123685e-03
-1.738240910697659916e-03,1.753893702032577329e-03
-7.819930339246234513e-04,7.880840286093811252e-04
-1.062046854211792443e-02,1.060134212806305293e-02
-4.408515743575467695e-03,4.392808800770397690e-03
6.037043716090611904e-03,-6.081340019725372560e-03
-7.362590322302161108e-03,7.336847064444317577e-03
-9.796803082664867768e-03,9.826004739913570679e-03
-1.166437499229651785e-05,2.305577572803043434e-05
-9.931220405023540032e-04,9.986010981220150729e-04
-3.031471121651321821e-03,3.010787938135223597e-03
-4.279048673523666232e-03,4.275873930629337828e-03
-1.040329103563616270e-02,1.039495105796128110e-02
-6.853282063405382978e-03,6.860925027633764557e-03
-2.797435600969276105e-03,2.795828456822494097e-03
-1.174193288811031322e-03,1.182472751257343177e-03
-7.625747919359176889e-03,7.605693277895708357e-03
-4.111817786132963663e-03,4.096266580202596354e-03
-1.922842921788737915e-03,1.900040923116463453e-03
-1.716239379596933793e-03,1.678606190972428865e-03
-3.995181720901032005e-03,4.007707173361123310e-03
5.713942714268515060e-04,-5.697069792773341466e-04
-1.133231396750001944e-03,1.123216799037143323e-03
-1.710824890363017367e-03,1.706621080909455097e-03
-5.169398203720903390e-03,5.196603333483791089e-03
1.881489650570615415e-04,-2.006180110443543240e-04
6.347654339047982715e-03,-6.372947858255460091e-03
1.717859999491569119e-03,-1.719562164206150847e-03
9.947011330645707389e-03,-9.958688563674053876e-03
9.771479194895443116e-03,-9.737571911128974772e-03
1.159637883347212212e-02,-1.161555439667619379e-02
2.292565733098081687e-03,-2.283974458355616730e-03
-1.380893534607753256e-03,1.371337096538741227e-03
-6.038109970195538329e-03,6.046800301812248549e-03
7.719069872278240313e-05,-8.479460808811561587e-05
2.597347465972150039e-04,-2.708393853509758874e-04
-6.145193319379052901e-03,6.148259234805022316e-03
-4.079938857902958710e-03,4.075652129839509724e-03
1.558334423494128876e-05,1.616396704564846677e-07
2.097849800427163940e-03,-2.128589959144577305e-03
-2.536865167472421474e-03,2.529084977969506612e-03
-9.209038387997927960e-04,9.232106739221605275e-04
9.682178410168073603e-04,-9.606164840842705728e-04
1.014853895939335114e-03,-1.021928972863885227e-03
-3.082716586419925308e-03,3.069698028246781261e-03
6.501163972271260805e-03,-6.535502359610292390e-03
7.511549959795569371e-04,-7.860674135092307569e-04
3.150219559072708810e-03,-3.170344952134158262e-03
-3.667536746389451433e-03,3.656017814138018407e-03
8.741652891123012983e-03,-8.724975761782598205e-03
-7.505139019612934621e-03,7.532738566069134035e-03
8.642233556436632047e-03,-8.635965825907202659e-03
5.483534201084694013e-03,-5.464359290988327414e-03
-7.557908912155285666e-03,7.554438179891766539e-03
1.369310577716682483e-04,-1.270432757879371344e-04
-6.905285660137488665e-03,6.892934914637333620e-03
-1.830140567782372399e-03,1.854413425942409667e-03
3.594702007127220655e-03,-3.600123572752743882e-03
-4.292750768846675252e-03,4.323280526244716732e-03
-4.122631524651382967e-03,4.132471820483005730e-03
-3.673892116192485537e-03,3.662883098159868712e-03
5.820628472670711165e-03,-5.810805416137302185e-03
-7.643139459172670555e-03,7.674665952740033353e-03
-7.570844401039876839e-03,7.551762792264143237e-03
-8.673526937900442185e-03,8.663190355125678296e-03
-8.935548170269785873e-03,8.917785524302267522e-03
-6.128727438146709672e-02,6.129763606393964781e-02
5.491850267022717683e-03,-5.514473338356978491e-03
-6.762677007138289884e-03,6.788618110657858480e-03
2.358573685853380692e-03,-2.331945045189734965e-03
6.669569899980731624e-03,-6.660197643759934762e-03
-5.707880064212868775e-03,5.680772384929982585e-03
-1.720688183692148376e-02,1.714894151449952719e-02
-1.385089754837578015e-03,1.382591269126003022e-03
4.999199546593609961e-03,-4.962191103134368578e-03
-8.742280327238506968e-03,8.760413473424617098e-03
-4.533968105120293746e-03,4.525191133282830541e-03
9.075453290649485201e-04,-9.465111396011512005e-04
-1.077263493417743648e-02,1.077535741580668699e-02
-1.677935474850516737e-03,1.704724285054512673e-03
9.280728185465792271e-03,-9.290802453079860870e-03
-5.089941500902786867e-03,5.064344725989339095e-03
-7.150924759208889241e-04,7.206307091877190655e-04
4.256824279131229613e-03,-4.288904591793827985e-03
-3.002199932795514975e-03,3.060375546209472344e-03
-1.009089003727633342e-03,1.045668704577128660e-03
1.302256369516715303e-03,-1.318957166474295228e-03
-1.170807055417384841e-02,1.173202890407876869e-02
1.262199044940053722e-03,-1.291749328238853004e-03
3.034577317247548651e-03,-3.014969073419482021e-03
6.893516990020238239e-03,-6.889623203150728112e-03
5.560544550550970862e-03,-5.543888948346947267e-03
-2.477376532399122935e-03,2.483424935819722630e-03
7.438682564190842762e-05,-7.764819914938457740e-05
-2.687237194573343854e-03,2.691889460642865259e-03
-6.426424131999100694e-04,6.432643272092907491e-04
3.887470977171513160e-04,-3.632126165097528266e-04
-1.371998125894727727e-03,1.405715566845918600e-03
5.126745906873623332e-03,-5.139514500708147228e-03
1.545462530909235245e-05,-6.444722658982646613e-05
-2.704417659466214468e-03,2.673424983723036823e-03
6.802109162348558835e-03,-6.840823487450248784e-03
-2.670930213883652288e-03,2.632026207270544895e-03
-1.959689351863914009e-03,1.964828026237258086e-03
-5.697868720793888148e-03,5.694535158426573644e-03
5.838365799945210641e-04,-5.741927917813200409e-04
-1.217642648488581614e-02,1.219208227473545653e-02
-7.653906479095661831e-04,7.761241349963760548e-04
-4.627910175817245148e-03,4.659370660162596815e-03
-1.239500191276221575e-03,1.242942483262913112e-03
3.576171420811479797e-03,-3.540463484882690193e-03
-1.025667889386349882e-02,1.022929526739140525e-02
9.781583888122882472e-03,-9.784216794278162432e-03
4.790413631759755063e-03,-4.773074673877255626e-03
8.646741206364407656e-03,-8.660734519192688635e-03
3.984234288999844581e-03,-3.993979853284330278e-03
4.822856388265265790e-03,-4.820066429903144788e-03
2.778510953930355808e-03,-2.771970001509711963e-03
-1.007614327575933992e-02,1.005207057567500221e-02
-3.025084605916062482e-04,2.914209637959137627e-04
3.206650085482918178e-03,-3.228816577241069418e-03
1.277861487833246816e-02,-1.279785384155684817e-02
5.541730686975564028e-03,-5.574397541547605403e-03
-3.167406421918996916e-03,3.194928971063927276e-03
6.960416911492693474e-03,-6.925931538465828971e-03
-4.744089966321964232e-03,4.752879229341210737e-03
-1.346651703686635101e-02,1.346127343513370093e-02
4.948117988981448959e-03,-4.942625837943881786e-03
-3.417346189010366311e-03,3.405093169071266197e-03
-5.415571253520590038e-03,5.386889613111778968e-03
7.517386650618336150e-03,-7.514726900052908290e-03
6.981026007822066330e-03,-6.979033089117015788e-03
8.370484587027467518e-03,-8.371732048472670107e-03
2.296300784034539799e-03,-2.308162311518673158e-03
6.863857613159270003e-03,-6.913249284779074237e-03
4.483861807579218352e-03,-4.506116908235765356e-03
3.245942529006761931e-03,-3.249173415660302350e-03
-9.710348694690302618e-04,9.918697333824930129e-04
7.572848916236910206e-03,-7.574039801522627208e-03
6.777024903301029010e-03,-6.772655620468718760e-03
-6.734597150285188743e-04,6.545293086651244327e-04
4.580943042056882905e-04,-4.360068592687656912e-04
-3.348308471485292575e-03,3.362032653399122176e-03
-5.629967075092226318e-03,5.655228364658634009e-03
-3.070334208389197909e-03,3.100137057999365932e-03
2.350062590734439648e-03,-2.330751497024813063e-03
2.121082616333638902e-03,-2.136608496602600965e-03
6.526891006459711181e-03,-6.523058780898855977e-03
-1.618409866658827943e-03,1.604591229065736044e-03
-6.139121753276363148e-03,6.136753456103855205e-03
-5.420174101764522849e-03,5.448349293980212470e-03
-4.084278960896193557e-03,4.099106166943358373e-03
-4.535307744785840346e-03,4.535092990987385150e-03
-2.746530998623515542e-03,2.742553742222222490e-03
-1.654784137176426757e-03,1.632511932978508587e-03
-1.675351290123244710e-03,1.666591153152321156e-03
-2.109784869869203976e-03,2.128072286800320422e-03
-7.034792961986985078e-04,7.082789550844152118e-04
2.816034073844082245e-04,-2.727813079440686715e-04
-1.692382599522863299e-03,1.699273832532108633e-03
-1.608873599720922476e-04,1.581703129637838880e-04
-1.814066503402406161e-03,1.795089947925814812e-03
-7.276229143028420214e-04,7.278947059199252509e-04
-8.604306656150012946e-04,8.715811421877898242e-04
-7.661604526482266230e-04,7.676436611629688109e-04
-7.257270855491774553e-04,7.280732040318629991e-04
-4.976363814190757707e-04,5.002000033757812237e-04
-1.223101598334077689e-03,1.219004760030447526e-03
-1.113637772809304835e-03,1.117807267768223568e-03
-1.125768807507796171e-03,1.124890370505470406e-03
-6.415335449146795802e-04,6.517728823178349029e-04
-1.452202805703005925e-03,1.465154131317974052e-03
-4.093702172926087031e-04,4.215154210712783955e-04
-4.141978976042913420e-04,4.269843053989236963e-04
-1.357155661168719246e-04,1.572779154467044630e-04
-5.538894796452304434e-04,5.662669649473779177e-04
-5.538894796452304434e-04,5.662669649473779177e-04
-5.490617993335517076e-04,5.607980806197342431e-04
-5.490617993335517076e-04,5.607980806197342431e-04
-8.105854158107502578e-04,8.179524835071431141e-04
4.911525289256061499e-06,-8.976498207691419977e-07
-9.007325211657782121e-05,9.432834926912842563e-05
4.911525289256061499e-06,-8.976498207691419977e-07
4.230854388176181666e-04,-4.098866993214521858e-04
4.230854388176181666e-04,-4.098866993214521858e-04
4.230854388176181666e-04,-4.098866993214521858e-04
6.189669924636810984e-04,-6.190953717174315285e-04
2.738052699334247455e-04,-2.648664562222990287e-04
2.738052699334247455e-04,-2.648664562222990287e-04
-1.102700945680450991e-04,1.117678124613441081e-04
-1.102700945680450991e-04,1.117678124613441081e-04
6.189669924636810984e-04,-6.190953717174315285e-04
-1.102700945680450991e-04,1.117678124613441081e-04
1.072177726563714904e-03,-1.071964221685862062e-03
8.781916197110475148e-04,-8.896635993325289820e-04
1.638692774285850466e-03,-1.661378108637614126e-03
1.474163921171949606e-03,-1.495764602510317150e-03
3.274151039596169652e-04,-3.615618217060074797e-04
8.467134792124560898e-04,-8.704725081677348441e-04
1.647681829742545520e-03,-1.693830093331985271e-03
-1.303801280078896105e-03,1.272340547276046589e-03
6.022670184476175371e-04,-6.262628036521734973e-04
2.414720281494220377e-04,-2.659273713682349413e-04
1.306672787550528089e-03,-1.329968735951268842e-03
-1.124027347276197481e-03,1.100768533624905997e-03
-1.666789573766019189e-03,1.626139572663461543e-03
-4.664722806512872598e-03,4.631495573999892985e-03
1.526432577018013541e-03,-1.546104803209578894e-03
1.400543980047196362e-03,-1.422632166502629672e-03
-1.253284072626248023e-03,1.236040375815128465e-03
5.340989645992247088e-04,-5.526466931859142211e-04
-1.916568002961129393e-03,1.934154783957507413e-03
-1.539363157958327380e-03,1.547536990199837887e-03
-1.840681247057338391e-03,1.842810547349182319e-03
8.510561018825952336e-04,-8.728279880944699162e-04
-2.051323817437642177e-03,2.047833350689424320e-03
7.119272441572199435e-04,-7.048747419582274696e-04
-1.808726734515551981e-03,1.814544078836585229e-03
-2.492006991634806556e-03,2.455556926443708873e-03
-1.343091786994851699e-03,1.367824493873093803e-03
5.022333767854342745e-04,-4.995366893751252042e-04
5.752815210566741225e-04,-5.931802420484698184e-04
-4.435985236581617940e-03,4.413408148686516833e-03
-3.496550400891343087e-04,3.670493153027737875e-04
3.971838572804487974e-03,-3.957531238611223037e-03
1.035913778966699155e-03,-1.026065925706464007e-03
5.491517490177790298e-03,-5.480473790285642945e-03
-4.227836557323492051e-04,4.607498655542480019e-04
-1.132819962500005069e-04,1.369690433302278565e-04
-3.109085320103518926e-03,3.097567036040087436e-03
-3.391372448919263878e-03,3.382483941032719994e-03
-2.943248674688579182e-03,2.938830142694227442e-03
-1.384988697684317194e-03,1.383013723806593648e-03
-3.891508370945373062e-03,3.907636938451718167e-03
2.167967171266837762e-03,-2.121479432061117252e-03
-7.112206006562960068e-04,7.156862451250562036e-04
6.189920799797695372e-05,-7.174948793560445765e-05
1.661131315778554282e-03,-1.667716000854729342e-03
4.698294046991674869e-03,-4.690592792326359409e-03
-7.612628122017417627e-03,7.602647565600380471e-03
-8.069679904141997123e-03,8.116802244195878147e-03
1.173050060511813143e-03,-1.147540658914881053e-03
3.856844683559871798e-03,-3.853783373815991131e-03
8.934432178105815650e-03,-8.960603628003030799e-03
1.898611640326781924e-02,-1.901698157448852150e-02
8.010499020228024902e-03,-8.035661716560575998e-03
3.365661954233181881e-03,-3.392270136113915893e-03
-6.351198687160211284e-03,6.376178873818500771e-03
-2.401970362372313813e-03,2.406660672420886469e-03
2.067076231619786875e-03,-2.054560002886552522e-03
2.655301672957971568e-03,-2.656786410557854163e-03
2.486950049035727226e-03,-2.487606760226038216e-03
7.579126228834691045e-04,-7.484114031580179705e-04
-2.553638420291049795e-03,2.476724530653211069e-03
-7.436113595048355479e-03,7.405121707758780154e-03
-4.735826677822719231e-03,4.740457013095350329e-03
-7.171278635176893401e-03,7.184625182701844144e-03
-4.619271146706152749e-03,4.627524579127705907e-03
-2.473446308973632074e-03,2.452388664123760983e-03
-6.220513105212693156e-03,6.216559361042164021e-03
1.291183909217171822e-03,-1.314016593826393539e-03
-3.260477027626258392e-03,3.256757244486120466e-03
4.200161067340842103e-03,-4.209998371865406042e-03
-4.009178293955009166e-03,3.978315561102650083e-03
-7.014452121005548477e-03,7.005583903974416278e-03
5.325927663212577136e-03,-5.307233430742821362e-03
8.406787478787848544e-03,-8.432636919494366362e-03
1.724738040083795276e-02,-1.725070263421882646e-02
5.382913645808085415e-03,-5.407373219565777059e-03
4.913401870848991410e-03,-4.895266546055495639e-03
-4.441925532499717277e-03,4.421702769325066770e-03
4.029476948429228100e-03,-4.054723464789863376e-03
3.094776387699105062e-04,-3.394627042783963000e-04
1.528497816393748149e-03,-1.567507532609599971e-03
-4.338620769746174416e-03,4.333367433818133621e-03
4.036520896110841819e-03,-4.024283473571888328e-03
4.930711248051851577e-03,-4.945405360980844982e-03
5.354287789966149461e-04,-5.568003731083995180e-04
2.603074450766890320e-03,-2.628676631551797333e-03
5.390518701824022901e-03,-5.391626557849186173e-03
4.476810172291094056e-03,-4.480628708266152713e-03
-6.028286115230169911e-03,6.034682895403653546e-03
3.950242415275888840e-03,-3.947549341401296839e-03
-2.914718699457677711e-03,2.912714144405194241e-03
5.962709397852797646e-03,-5.967152414792689652e-03
-3.916065626297818986e-03,3.901605845613595469e-03
-9.165663539181436587e-03,9.153062067142917965e-03
-5.475268819809574541e-03,5.447788805557368490e-03
6.164363887065000842e-04,-6.310086110026423209e-04
9.914640250848097240e-04,-1.011920046738443114e-03
-1.021313993908554846e-02,1.023713303484086699e-02
-3.215018171299965141e-03,3.178594672322765033e-03
-2.616601680736124671e-03,2.617271433780897494e-03
-1.208472886466506035e-03,1.219470459423240179e-03
-2.834599021229958909e-02,2.832904868485621591e-02
7.430941525380960026e-03,-7.446939916923018925e-03
-3.754378261278507132e-03,3.737761516664378416e-03
2.961962342220138353e-03,-2.968915886729793681e-03
1.002071236209653785e-02,-1.001599890105539861e-02
-5.993067490837932290e-03,5.963563966754379525e-03
-6.298398298170179710e-03,6.281817189577396619e-03
-1.791548265786727708e-03,1.779085296773609938e-03
-1.039324096203543719e-03,1.041884104823375540e-03
7.632909645584630681e-04,-7.573010723557555479e-04
-3.268436157004268958e-03,3.225485495597192349e-03
-7.797213276889830395e-03,7.779403677399401168e-03
1.989373885110000927e-03,-1.967965512663260707e-03
-1.909495563180842008e-03,1.901332549736890276e-03
9.921339382815907385e-04,-1.000392047833471030e-03
2.044826111474269507e-03,-2.074009058174319017e-03
-1.488936198156108441e-02,1.487860560873230549e-02
1.444195002408599476e-03,-1.437149541851181741e-03
-3.120087187350214456e-03,3.190020028302978893e-03
5.870236686843059888e-03,-5.862598153698633796e-03
1.003427129507553431e-02,-1.002377798800244482e-02
3.503811238066851727e-03,-3.533893899103777731e-03
5.648410880081146390e-03,-5.645958369532448444e-03
9.047737196304932086e-04,-8.855813713120520457e-04
4.254940482060286895e-04,-4.137706111267336817e-04
-3.328695182939254895e-03,3.331222533306564277e-03
-4.565735001925026564e-03,4.548600415064035958e-03
-1.601961689280847296e-03,1.599017852723761063e-03
-2.225256152304800825e-03,2.220757693105179439e-03
-3.203154409289035113e-03,3.196512284267474455e-03
-1.120697942889376745e-03,1.136128323161571209e-03
-1.135103116856645391e-03,1.137325527943226907e-03
-4.454731569070100039e-03,4.466358183083865910e-03
-1.172908524700087265e-03,1.141161989979087767e-03
-2.103543064588032224e-03,2.074996870958612915e-03
1.235848455859465088e-03,-1.262854548936208007e-03
-2.189536220997246718e-03,2.150503575831519843e-03
6.698335037350411532e-03,-6.716099874931949487e-03
3.456272229957893256e-03,-3.474156715710075786e-03
7.305750781769414573e-03,-7.312978839279451852e-03
-2.424914736426264390e-03,2.414011425169153117e-03
-3.335503331818593081e-03,3.340767334090070841e-03
-8.008119844156816672e-03,7.975899062716201859e-03
-6.526409011116221168e-03,6.533900714799785805e-03
-2.277163597978413331e-03,2.295775353070292086e-03
-6.189550698904287135e-03,6.154801331607983803e-03
4.826052450398526580e-04,-5.141109359250843093e-04
-1.298340800474061263e-04,1.133545884397153022e-04
3.195906486091327006e-03,-3.206057647613570413e-03
5.400019930711831215e-03,-5.395353261855403981e-03
1.662670357533790107e-03,-1.670410513216690276e-03
2.595180847432205888e-03,-2.600533705859955479e-03
-5.571360222407574156e-03,5.542386034566556055e-03
4.198261048226130886e-04,-4.406610720303286025e-04
2.137340159340843631e-03,-2.155291725335959849e-03
-1.021944973691785163e-02,1.023470814880329642e-02
-4.316205387118078086e-03,4.313417813381049092e-03
-1.335284489255989838e-02,1.335220312540779351e-02
-5.020444582516168756e-04,5.013118806166670964e-04
-2.588431637872663522e-03,2.592510184677675189e-03
-3.773979923380683336e-03,3.771501467946067766e-03
-7.565150820298088656e-03,7.545451209758378096e-03
-9.347314252633156378e-03,9.350279493734601349e-03
-3.675288884829174419e-03,3.633039029010700759e-03
7.704388308205877001e-03,-7.704078581330042752e-03
-4.251428367391460808e-03,4.248962655880888888e-03
2.916323197510783515e-03,-2.927080374844800038e-03
1.887654570694761308e-03,-1.868674636870337139e-03
7.854013618545682522e-04,-8.067732238226009650e-04
7.881927523309410072e-03,-7.881474094494651111e-03
4.965430719097383046e-03,-4.952666438805642529e-03
5.050979212418408963e-03,-5.035485226567672744e-03
7.164091840166536204e-03,-7.156196489881846978e-03
-2.161441840481203138e-04,2.178343371467731206e-04
-3.365323318018017661e-03,3.359622957720141082e-03
-7.211024881396055873e-03,7.187474380981804384e-03
-1.810524326693545684e-03,1.822423504195958954e-03
1.167598783653572966e-03,-1.138655963020989261e-03
-1.236708147305318596e-04,1.458976635213719635e-04
8.177513215897401055e-04,-8.012188972299005363e-04
1.234282407841634770e-03,-1.208421694112799894e-03
5.122753859102716772e-03,-5.119121489923249453e-03
-1.585481529692065079e-03,1.582106842616198827e-03
-3.658805528437956370e-03,3.676530266706409464e-03
-6.528656399361782228e-03,6.558889284046104384e-03
-5.545698455493035597e-03,5.554205798483583499e-03
-7.270813665290285638e-04,7.355785848302754315e-04
-3.366358850159375908e-03,3.353257754476474464e-03
5.042838752946751830e-04,-5.144910440676482436e-04
1.752018587617582294e-04,-1.999853183303046519e-04
-1.883058102593797127e-03,1.866906156539498152e-03
1.776393875352617728e-04,-1.777481913548071147e-04
4.072628313760203594e-04,-4.230665756246580647e-04
-1.902790989246148446e-03,1.891261006418157222e-03
-3.781430614180513101e-04,3.538194917023087063e-04
-1.630228533056477924e-03,1.611035873768950884e-03
-1.136299127015023835e-03,1.139182418701323264e-03
-1.135548475814168127e-03,1.140109762757781676e-03
-2.569334439908343743e-04,2.587229977203311785e-04
-1.443316292548777347e-04,1.521591193416354691e-04
-1.003993623930133370e-03,1.006789440392570623e-03
-1.813808045199628632e-03,1.774908843615139505e-03
-1.842704860200666686e-03,1.806804019281787934e-03
-1.154175523362107681e-03,1.154294346647465660e-03
-6.415335449146795802e-04,6.517728823178349029e-04
-1.452202805703005925e-03,1.465154131317974052e-03
-1.452202805703005925e-03,1.465154131317974052e-03
-1.610827226274390072e-03,1.604779184668197155e-03
-1.435244090692774704e-03,1.452602144253105007e-03
-1.440071771004494206e-03,1.458071028580744128e-03
-6.197471495927828504e-04,6.337520109253046196e-04
-1.853418004221142655e-03,1.861591193753808467e-03
-1.853418004221142655e-03,1.861591193753808467e-03
-1.037921063121138984e-03,1.042741060425973060e-03
-9.732507304439567790e-04,9.724078135571012464e-04
-1.037921063121138984e-03,1.042741060425973060e-03
-1.037921063121138984e-03,1.042741060425973060e-03
-1.037921063121138984e-03,1.042741060425973060e-03
-1.290071196123085927e-03,1.281527688584849917e-03
-1.290071196123085927e-03,1.281527688584849917e-03
-6.760157289486858892e-04,6.633299666881781187e-04
-1.000992297682043539e-03,9.978760608657588019e-04
-6.760157289486858892e-04,6.633299666881781187e-04
-1.242196547305111053e-03,1.240220544592476578e-03
-5.129594602734064172e-04,5.093573604136279742e-04
5.298731281369932445e-04,-5.342813498331244401e-04
-1.238879778137031503e-04,1.344845829612071480e-04
9.092796744338814971e-04,-9.042272080868696358e-04
9.830838622370545888e-04,-9.871501998015470587e-04
7.890977553843885007e-04,-8.048495774481672499e-04
2.794071797402488517e-04,-2.850071558257389671e-04
5.507647144673361245e-04,-5.563130796062184386e-04
7.860425618898767832e-04,-8.136639427775019598e-04
5.716965005084852528e-04,-6.143366631898435851e-04
-2.585574196856792466e-04,2.343545044974813471e-04
5.908860098295108968e-04,-6.271458444404391912e-04
1.314773870871365456e-03,-1.364587039216214916e-03
1.229939287419898851e-03,-1.260872269937034218e-03
2.304873034934206821e-03,-2.311433016728190772e-03
9.873181062395196186e-04,-1.001319104673479600e-03
-3.155687322671491858e-03,3.145539530246493996e-03
1.465937921541252652e-03,-1.475383075828881835e-03
1.788441242718688887e-03,-1.797530024151104385e-03
-3.056376848231511477e-03,3.050501136196893774e-03
2.900073051392322663e-03,-2.887591841451784234e-03
-4.240048141636100802e-04,4.340698540141614526e-04
-8.474101552210310624e-04,8.534696908354419496e-04
4.609942733177359656e-03,-4.601379096312553478e-03
3.848450239804407889e-03,-3.849783242918727519e-03
9.270181871232827369e-04,-9.289418847251533495e-04
9.548781491509506381e-04,-9.512950114323217828e-04
-2.296420571056932182e-03,2.305272636300475554e-03
1.450505244382032993e-03,-1.480579271844351596e-03
-6.752732493765485101e-03,6.768369074957968426e-03
-3.485189737313927009e-03,3.487548135815866403e-03
-3.354230588696174419e-03,3.333426545288298900e-03
2.305578172036714269e-03,-2.308646616794612482e-03
5.745439021553304902e-03,-5.743031782317420918e-03
-7.408733850267452611e-03,7.415477138080587942e-03
1.133794697427169436e-03,-1.117281734778812147e-03
3.507544910722159171e-03,-3.493615263121899097e-03
1.518461335362313687e-03,-1.515320149307837483e-03
-9.883605576762785269e-03,9.909441424006151106e-03
-8.029838429985048515e-03,8.013186356739270336e-03
1.197413323000530872e-03,-1.204429182198036305e-03
-4.862375807484674121e-03,4.890736362843176206e-03
6.610753525619556589e-04,-6.269544610561259912e-04
-8.887491316494676788e-03,8.878168442839722008e-03
-8.518134067350814284e-03,8.529867354320581560e-03
-6.217856342849952325e-03,6.223783508912974355e-03
-5.757288713593672162e-03,5.801913330388116727e-03
-4.577966726010422073e-03,4.570763759616808947e-03
-9.481826415952619410e-04,9.179661828459342345e-04
-1.284051622551270026e-02,1.283464498850718852e-02
-4.971470073790688372e-03,4.998353529650410854e-03
-5.013585965718702795e-04,5.280379141832690967e-04
1.282980348307903107e-03,-1.276198662196975512e-03
2.184021900822384968e-03,-2.205529979995473570e-03
1.130446488252528697e-03,-1.133942470978873069e-03
4.596143643762902811e-03,-4.600753671672475412e-03
1.491421773322740198e-03,-1.502565199043616418e-03
3.148326896831490918e-03,-3.133073449405599648e-03
1.488633528751165738e-03,-1.495640408964839328e-03
-3.499076581625828498e-03,3.515043410575650982e-03
-1.426954319222840896e-03,1.390269038713058333e-03
-9.655954066785498585e-03,9.684645844596702011e-03
-6.040676865978998611e-03,6.047337554050928252e-03
-7.613337874308881773e-03,7.618089044399375433e-03
-7.550867816028944239e-03,7.547910041294337430e-03
9.041333895233289548e-04,-9.251631751467391312e-04
-3.166212208698762111e-03,3.158223150878547870e-03
-3.044184269475878370e-04,2.987301119635281648e-04
4.564222690284824684e-03,-4.564762924659800970e-03
-2.162100598222793050e-03,2.148491160638056445e-03
-3.071493457310163055e-03,3.082146547361800434e-03
-6.382922365559780438e-03,6.383564691262813909e-03
-3.871712062371834829e-04,4.107023499464778683e-04
-2.308846865923289051e-03,2.295730436788345243e-03
3.658407502874929003e-03,-3.667780450961572597e-03
1.092466426150593556e-02,-1.090312148574016163e-02
7.738935750647081557e-03,-7.713564244257402509e-03
3.765851540414588694e-03,-3.744968566308853539e-03
-2.775607721434796265e-04,2.980466120289725854e-04
2.821117155927494163e-03,-2.825196686060359435e-03
-3.924097480570640228e-03,3.924854066182763453e-03
-7.924512578047759057e-04,7.718920158064263059e-04
-4.644484276592990638e-03,4.646143836477601742e-03
-9.102712796205803328e-03,9.125705722474182491e-03
1.004669689650095196e-03,-1.031608470299886322e-03
3.767818199826384641e-03,-3.725419780431450580e-03
1.436391410847798547e-02,-1.433693606721677359e-02
4.857596001045531332e-03,-4.853462334664801307e-03
1.390796040521533961e-03,-1.460037119805522457e-03
3.769291713909485916e-03,-3.807214254538249156e-03
4.191979866560695787e-03,-4.197540840117889790e-03
-6.410009259968344093e-03,6.437871572625282653e-03
2.582331457448290828e-03,-2.601809840796972910e-03
1.180612295014205407e-02,-1.182244842067502709e-02
5.585337509859162816e-03,-5.575414554202022706e-03
-4.130739384078880921e-04,3.971743689607728253e-04
8.593586261035538951e-03,-8.628350187973461358e-03
7.845442578053087382e-03,-7.840648659867334794e-03
-6.207900664052863615e-03,6.216125057841172252e-03
-8.274231784018217266e-04,8.296421045000134699e-04
-3.699226034239025580e-03,3.709585368140173780e-03
1.686999666215179385e-03,-1.700852778428372852e-03
-1.229625434491758880e-02,1.231693052170137158e-02
-2.659565556795535479e-03,2.622085638383412666e-03
-1.511438372582932406e-02,1.513614335388542391e-02
6.632017947780730234e-03,-6.643626072120830707e-03
-1.842041642352797853e-02,1.841723691801363735e-02
-8.874672318864736814e-03,8.876765943024556016e-03
5.025078133256827111e-03,-5.003912815495286867e-03
-1.330854987599609535e-03,1.319541811860282807e-03
-9.912220081057153409e-03,9.876437932736631051e-03
-7.769971318772256937e-04,7.696727719542858668e-04
3.630628613356624065e-03,-3.613827117871712836e-03
3.790494090749212553e-03,-3.780007435000865348e-03
-3.965419138418520978e-03,3.948630283567350005e-03
-1.987795787469945254e-03,1.961965855201453467e-03
-3.550135596937731503e-04,3.516552261851492575e-04
5.764914230174568964e-03,-5.774118399420447197e-03
1.654970423146176917e-03,-1.654087203931263635e-03
-1.686131548732090854e-04,1.421888174103644266e-04
-3.506604116805389550e-03,3.493151312189703237e-03
-6.645829780429460439e-05,6.454763643487955980e-05
8.874067734173008218e-03,-8.859552691034316280e-03
4.089425170484209913e-03,-4.132882551847088040e-03
1.581512316230830606e-02,-1.581313051011437945e-02
1.294051410196442146e-02,-1.292836688825797775e-02
-3.275905481441537641e-03,3.245894348277498891e-03
-1.080966466920707872e-03,1.093093001795962310e-03
4.110536423493869017e-03,-4.137218026110518060e-03
-5.652348698134598273e-04,5.591843814905971466e-04
-2.135101361751779066e-03,2.156277991533117611e-03
1.073720154611510977e-02,-1.071185798070345765e-02
5.632611188096214860e-03,-5.643618184503913435e-03
7.862838529354741063e-03,-7.834491967422562916e-03
9.593372761406090705e-04,-9.217969248196624830e-04
-3.051569771385908344e-03,3.080706267369255971e-03
5.531182905399582503e-03,-5.521757278319498925e-03
4.965992209473123545e-03,-4.965928829884239983e-03
6.280366045837203724e-03,-6.294123541622672485e-03
1.729798907873982428e-03,-1.752950889932712456e-03
-1.003953683401742668e-03,9.902378306606708213e-04
8.119286951747597264e-03,-8.117518094093756006e-03
8.401707638400299216e-03,-8.403471267600458317e-03
8.736665228618633802e-03,-8.722590147787017550e-03
-9.474587586175948302e-04,9.498171166830853300e-04
-2.127349810444613062e-03,2.144944147678615187e-03
-1.639599821328677426e-03,1.659304777806641477e-03
-6.780202930651070894e-03,6.786418822808148663e-03
-1.977859978079903741e-03,1.977890576096306887e-03
4.254772031485386762e-03,-4.240019548139677998e-03
8.320424142402421328e-03,-8.330131688983938645e-03
-1.387572121225899655e-03,1.394040241776907992e-03
-5.396119247202552267e-03,5.422791944732353701e-03
-8.420061232029651954e-03,8.423573021174650746e-03
3.461003040757190414e-03,-3.468788543491550802e-03
1.242380781055170413e-02,-1.239737569606383025e-02
9.911766358576643010e-03,-9.890947498047131942e-03
5.253187157532047610e-03,-5.256666243356769748e-03
-7.295231111899163658e-04,7.489113760465686666e-04
-4.822986498027532869e-03,4.859448580954958338e-03
-7.585453439694095183e-03,7.590433783146953266e-03
-4.705786875372934726e-03,4.696822302828938811e-03
8.874889041842512483e-03,-8.862774457380213911e-03
3.700512344363120036e-03,-3.707892539611291807e-03
7.177471721132647024e-03,-7.179617252880081575e-03
-2.784805080130191551e-03,2.777498907261559055e-03
5.559281055075701063e-03,-5.552495197913161727e-03
7.627760661726517254e-03,-7.609021573124177124e-03
1.006322980847196291e-02,-1.007435063953390948e-02
1.010069787524629781e-02,-1.011907380594860399e-02
-1.325203081257598798e-03,1.343630534068668368e-03
-5.804907512782239189e-03,5.799608578638875030e-03
-5.539202275409196331e-03,5.532369466067854104e-03
7.450831263825682428e-03,-7.440865886962685222e-03
1.047795571773921935e-02,-1.047477470807380712e-02
7.589485899603340587e-03,-7.594366107052097185e-03
2.303828016175481046e-03,-2.303742681608727475e-03
4.679225116947273444e-03,-4.669092022212439907e-03
1.115278713738579751e-04,-1.227845516003827969e-04
-3.165170244190758462e-03,3.150822770595318196e-03
2.195020364986284903e-03,-2.220412992460712737e-03
3.599390774982989729e-03,-3.604208530684640567e-03
5.212356890133668617e-03,-5.201634425985795368e-03
-3.618250865410947269e-03,3.630776125354525426e-03
1.967926592645708600e-03,-1.951110866845689020e-03
2.907472056614330332e-03,-2.930548805588148106e-03
6.440129696790242858e-03,-6.436160122203707888e-03
4.745348898734702038e-03,-4.740678737192553435e-03
-2.286832626271495961e-03,2.283333598644990154e-03
-5.991347067886568711e-04,6.073813591876236996e-04
-1.179005887304947946e-03,1.167598957006258037e-03
-9.019176323286125577e-04,9.077305596055976851e-04
-3.313098502309469191e-03,3.306462368437837127e-03
-1.725537860846953044e-03,1.726973714229033258e-03
1.991103451604927805e-04,-2.108849181424650736e-04
8.120140499500743585e-04,-8.168800681855324956e-04
1.556080197679329770e-03,-1.575450739172209493e-03
2.242033153903741360e-03,-2.261125336486009309e-03
2.460523418669474140e-03,-2.470470755205881122e-03
9.149485636071712235e-05,-1.051093079315523944e-04
9.034872999713129986e-04,-9.058792360101204687e-04
7.382111848506762259e-04,-7.292478547324454446e-04
6.872634840271774114e-04,-6.881224764043414278e-04
3.147255986355294052e-04,-3.052796723649157397e-04
3.436224136365523892e-04,-3.371748480315561454e-04
2.029423269021452285e-04,-1.950500209355916640e-04
-8.543279287547601321e-05,6.181770878599718755e-05
6.672255634839677338e-04,-6.820100741557199057e-04
1.091692801405064065e-03,-1.093290255259937336e-03
1.450780969291305434e-05,2.771449009513991090e-06
-1.170839955962366547e-05,3.498408844765707172e-05
-1.008022638863023511e-04,1.197981103320068844e-04
7.146946772136772647e-04,-6.990520229958148077e-04
7.098669969019662197e-04,-6.935831386681654952e-04
7.146946772136772647e-04,-6.990520229958148077e-04
7.146946772136772647e-04,-6.990520229958148077e-04
7.146946772136772647e-04,-6.990520229958148077e-04
2.965207636853512177e-04,-2.900629734951727678e-04
2.965207636853512177e-04,-2.900629734951727678e-04
2.965207636853512177e-04,-2.900629734951727678e-04
2.965207636853512177e-04,-2.900629734951727678e-04
2.965207636853512177e-04,-2.900629734951727678e-04
2.965207636853512177e-04,-2.900629734951727678e-04
5.516384085383667845e-04,-5.450794167212668316e-04
8.968001310686381537e-04,-8.993083322164331043e-04
9.288552287423282707e-04,-9.292295394003489886e-04
7.467497748873517692e-04,-7.289732301797241867e-04
1.059856399743908627e-03,-1.053280938491058709e-03
1.059856399743908627e-03,-1.053280938491058709e-03
7.146946772136772647e-04,-6.990520229958148077e-04
7.146946772136772647e-04,-6.990520229958148077e-04
1.018625242429493146e-03,-1.006900629865154851e-03
1.018625242429493146e-03,-1.006900629865154851e-03
1.169800858107133013e-03,-1.178828923007013306e-03
1.441158392834188465e-03,-1.450134846787530562e-03
1.125453924042716259e-03,-1.112593047518372963e-03
7.465790095474179053e-04,-7.476522618033523433e-04
9.191734599602782154e-04,-9.320586207341025053e-04
1.083702313074118902e-03,-1.097672126861535006e-03
1.431451371812589649e-03,-1.446938182994294891e-03
